svm_type epsilon_svr
kernel_type rbf
gamma 0.00390625
nr_class 2
total_sv 1454
rho -1524.38
SV
-64 1:1077 2:1083 3:1093 
64 1:385 2:1094 3:1936 
64 1:2 2:52 3:152 
-64 1:0 2:0 3:0 
64 1:159 2:275 3:345 
-64 1:388 2:616 3:700 
-64 1:0 2:62 3:198 
64 1:1 2:170 3:500 
-64 1:149 2:152 3:155 
64 1:2735 2:3451 3:3958 
-64 1:66 2:150 3:196 
64 1:1463 2:1817 3:2187 
64 1:0 2:0 3:0 
-64 1:576 2:693 3:798 
-64 1:736 2:889 3:995 
64 1:2350 2:3148 3:3905 
-64 1:318 2:374 3:420 
64 1:1503 2:1838 3:2049 
64 1:1893 2:2366 3:2776 
64 1:310 2:696 3:1045 
-64 1:70 2:178 3:262 
64 1:0 2:0 3:169 
64 1:1945 2:2619 3:3132 
-64 1:362 2:404 3:431 
-64 1:13 2:35 3:54 
-64 1:364 2:402 3:449 
64 1:0 2:0 3:0 
64 1:959 2:1329 3:1692 
64 1:486 2:3032 3:4440 
64 1:833 2:1173 3:1429 
-64 1:576 2:651 3:692 
64 1:70 2:355 3:1052 
-64 1:354 2:550 3:691 
-64 1:0 2:0 3:0 
-64 1:88 2:130 3:169 
-64 1:9 2:9 3:88 
-64 1:167 2:173 3:182 
64 1:2484 2:3163 3:3726 
64 1:4014 2:4665 3:5067 
64 1:2548 2:2995 3:3406 
64 1:777 2:845 3:920 
-64 1:638 2:728 3:869 
-64 1:1034 2:1070 3:1105 
64 1:153 2:2153 3:8524 
64 1:0 2:0 3:0 
-64 1:939 2:1067 3:1158 
-64 1:257 2:340 3:371 
64 1:0 2:0 3:200 
-64 1:280 2:337 3:470 
-64 1:327 2:362 3:408 
64 1:2 2:929 3:2191 
64 1:0 2:0 3:0 
64 1:1755 2:1858 3:1939 
64 1:2 2:3 3:197 
-64 1:0 2:0 3:0 
-64 1:382 2:419 3:444 
64 1:777 2:1009 3:1189 
64 1:730 2:1246 3:1683 
64 1:2287 2:2366 3:2430 
64 1:1153 2:1575 3:1969 
64 1:0 2:0 3:0 
64 1:2440 2:3636 3:4381 
64 1:1008 2:1164 3:1289 
64 1:39 2:484 3:953 
-64 1:377 2:444 3:475 
-64 1:580 2:665 3:729 
-64 1:3 2:3 3:3 
64 1:1241 2:1373 3:1523 
64 1:522 2:989 3:1376 
64 1:4706 2:4738 3:4771 
64 1:366 2:793 3:1175 
64 1:1587 2:2587 3:4508 
64 1:109 2:475 3:865 
64 1:2134 2:2512 3:2787 
-64 1:126 2:127 3:127 
64 1:1436 2:1487 3:1528 
64 1:0 2:0 3:0 
-64 1:79 2:95 3:107 
-64 1:0 2:0 3:1 
-64 1:210 2:282 3:347 
-64 1:370 2:441 3:498 
64 1:1408 2:1624 3:1757 
64 1:3760 2:4896 3:5747 
-64 1:141 2:166 3:184 
64 1:690 2:933 3:1117 
64 1:4722 2:5635 3:6385 
64 1:2699 2:3424 3:3921 
-64 1:649 2:822 3:862 
64 1:0 2:0 3:179 
64 1:0 2:0 3:33 
64 1:5185 2:6006 3:6615 
64 1:66 2:152 3:225 
-64 1:450 2:536 3:631 
-32.89599387937024 1:228 2:453 3:750 
64 1:3018 2:4039 3:4849 
-64 1:392 2:453 3:494 
-64 1:0 2:0 3:4 
-64 1:366 2:484 3:580 
-64 1:0 2:0 3:0 
64 1:3135 2:3683 3:3762 
64 1:2433 2:3059 3:3734 
64 1:1430 2:2549 3:3286 
64 1:3986 2:5123 3:5870 
-64 1:0 2:1 3:2 
-64 1:203 2:243 3:276 
64 1:0 2:0 3:117 
64 1:295 2:1142 3:2041 
64 1:3799 2:4440 3:4874 
-39.51751331972901 1:4 2:4 3:83 
-64 1:59 2:72 3:77 
-64 1:133 2:158 3:158 
-64 1:0 2:0 3:31 
-64 1:24 2:80 3:84 
-64 1:0 2:0 3:0 
64 1:2227 2:5907 3:9391 
-64 1:0 2:0 3:0 
-64 1:262 2:314 3:360 
-64 1:299 2:334 3:363 
64 1:1521 2:1780 3:2018 
64 1:68 2:742 3:1312 
64 1:59 2:328 3:621 
64 1:3306 2:4101 3:4765 
-64 1:1 2:1 3:1 
64 1:1129 2:1216 3:1303 
-64 1:358 2:577 3:704 
-64 1:370 2:388 3:398 
64 1:4946 2:5525 3:5943 
64 1:422 2:1723 3:2926 
-64 1:62 2:82 3:97 
-64 1:13 2:28 3:140 
-64 1:143 2:378 3:589 
-64 1:25 2:133 3:246 
64 1:711 2:1074 3:1456 
64 1:768 2:1338 3:1837 
64 1:286 2:922 3:1548 
64 1:0 2:0 3:0 
64 1:0 2:0 3:0 
-64 1:45 2:45 3:46 
64 1:243 2:678 3:1123 
-64 1:238 2:298 3:326 
-64 1:359 2:497 3:610 
-16.66795950056256 1:974 2:1099 3:1192 
-64 1:146 2:195 3:213 
64 1:0 2:163 3:851 
-64 1:619 2:666 3:708 
64 1:4258 2:5823 3:6903 
64 1:0 2:192 3:520 
-64 1:75 2:101 3:125 
-64 1:372 2:382 3:391 
-64 1:38 2:50 3:60 
-64 1:167 2:201 3:212 
-64 1:366 2:476 3:570 
-64 1:0 2:0 3:0 
-64 1:0 2:27 3:60 
64 1:1402 2:1586 3:1789 
-64 1:0 2:28 3:58 
-64 1:620 2:708 3:774 
-64 1:138 2:139 3:140 
-64 1:179 2:210 3:239 
-64 1:84 2:320 3:507 
-64 1:9 2:18 3:22 
64 1:2098 2:2477 3:2788 
-64 1:52 2:55 3:57 
64 1:224 2:473 3:670 
64 1:53 2:317 3:563 
-64 1:102 2:125 3:136 
64 1:0 2:0 3:0 
64 1:256 2:766 3:1172 
-64 1:3 2:5 3:267 
-64 1:111 2:163 3:187 
-64 1:9 2:11 3:15 
-64 1:185 2:279 3:353 
64 1:334 2:1136 3:1773 
64 1:3580 2:4385 3:5073 
-64 1:380 2:435 3:477 
-64 1:1088 2:1112 3:1136 
-64 1:83 2:144 3:164 
-64 1:1 2:1 3:1 
64 1:76 2:438 3:882 
64 1:1059 2:2496 3:3691 
-64 1:156 2:287 3:413 
64 1:576 2:776 3:904 
-64 1:98 2:103 3:103 
64 1:1551 2:1693 3:1787 
-64 1:67 2:147 3:248 
64 1:1535 2:2180 3:2767 
64 1:1399 2:2113 3:2462 
-64 1:649 2:661 3:667 
-64 1:471 2:535 3:591 
64 1:1 2:1 3:1 
-64 1:957 2:1069 3:1148 
64 1:689 2:990 3:1289 
-64 1:128 2:167 3:194 
64 1:303 2:508 3:714 
64 1:0 2:0 3:1296 
-64 1:8 2:8 3:45 
-64 1:237 2:318 3:399 
-64 1:0 2:0 3:0 
-64 1:608 2:698 3:766 
-64 1:626 2:753 3:870 
-64 1:21 2:27 3:31 
64 1:553 2:1330 3:2055 
64 1:604 2:865 3:1061 
-64 1:83 2:86 3:89 
-64 1:17 2:21 3:33 
64 1:2272 2:2743 3:2968 
-64 1:30 2:39 3:46 
-64 1:483 2:541 3:583 
-64 1:20 2:212 3:444 
64 1:1 2:3 3:4 
-64 1:148 2:188 3:205 
-64 1:495 2:568 3:647 
64 1:913 2:2962 3:4917 
-64 1:0 2:18 3:101 
64 1:0 2:0 3:0 
64 1:70 2:448 3:1058 
-64 1:114 2:122 3:133 
-64 1:216 2:227 3:237 
64 1:2180 2:2491 3:2606 
64 1:0 2:300 3:707 
64 1:3 2:4 3:51 
-64 1:52 2:128 3:181 
64 1:6224 2:7216 3:8082 
64 1:2123 2:2425 3:2709 
-64 1:11 2:12 3:15 
-64 1:424 2:488 3:580 
-64 1:0 2:0 3:207 
-64 1:112 2:124 3:131 
64 1:2649 2:3356 3:3952 
-64 1:232 2:377 3:427 
-64 1:565 2:654 3:742 
64 1:0 2:24 3:125 
64 1:6 2:684 3:1352 
-64 1:134 2:330 3:521 
-64 1:114 2:136 3:154 
64 1:513 2:955 3:1389 
-64 1:0 2:0 3:125 
-64 1:271 2:302 3:326 
-64 1:187 2:363 3:486 
-64 1:201 2:439 3:622 
-64 1:3 2:3 3:50 
-64 1:100 2:108 3:114 
-64 1:413 2:435 3:456 
64 1:1245 2:1671 3:1987 
-64 1:0 2:25 3:239 
-64 1:20 2:218 3:316 
64 1:3070 2:3464 3:3768 
-64 1:78 2:90 3:97 
-64 1:45 2:60 3:68 
64 1:68 2:451 3:764 
64 1:1554 2:2172 3:2573 
-64 1:88 2:273 3:430 
-64 1:43 2:44 3:45 
64 1:7 2:178 3:336 
64 1:0 2:0 3:0 
64 1:594 2:713 3:854 
-64 1:263 2:283 3:301 
-64 1:298 2:321 3:343 
64 1:1054 2:1554 3:2071 
-64 1:63 2:120 3:161 
-64 1:128 2:158 3:172 
64 1:111 2:468 3:859 
-64 1:465 2:505 3:526 
64 1:0 2:0 3:0 
64 1:239 2:596 3:821 
-64 1:120 2:267 3:383 
-64 1:629 2:733 3:808 
64 1:2507 2:3293 3:3913 
64 1:0 2:1 3:340 
64 1:2143 2:2670 3:3081 
64 1:0 2:0 3:0 
64 1:1971 2:2950 3:3515 
64 1:0 2:0 3:1585 
-64 1:13 2:60 3:141 
23.11502835713433 1:1250 2:1303 3:1336 
64 1:3 2:213 3:485 
64 1:388 2:1367 3:1961 
64 1:921 2:1304 3:1583 
64 1:2130 2:3081 3:4031 
64 1:1662 2:4332 3:6175 
-64 1:16 2:77 3:125 
64 1:425 2:906 3:1522 
64 1:109 2:326 3:732 
64 1:219 2:846 3:2236 
-64 1:142 2:210 3:262 
64 1:477 2:948 3:1375 
64 1:1 2:1009 3:2036 
-64 1:0 2:0 3:0 
64 1:15 2:161 3:215 
64 1:7 2:176 3:438 
-64 1:724 2:724 3:724 
-64 1:0 2:0 3:0 
-64 1:96 2:119 3:138 
64 1:391 2:749 3:1026 
-64 1:292 2:389 3:467 
64 1:92 2:320 3:580 
64 1:4 2:2162 3:4198 
-64 1:355 2:427 3:496 
-64 1:416 2:480 3:551 
-64 1:11 2:29 3:45 
64 1:0 2:0 3:5 
64 1:1062 2:1682 3:2805 
64 1:967 2:2149 3:3235 
64 1:2 2:2 3:2 
-64 1:281 2:313 3:326 
64 1:509 2:1332 3:2026 
64 1:388 2:520 3:604 
64 1:0 2:0 3:0 
-64 1:185 2:211 3:215 
64 1:278 2:731 3:1117 
64 1:1598 2:2364 3:3209 
64 1:1272 2:1514 3:1761 
-64 1:0 2:2 3:118 
64 1:0 2:0 3:179 
64 1:389 2:690 3:962 
-64 1:126 2:265 3:371 
64 1:561 2:1267 3:1889 
64 1:1434 2:1864 3:2074 
64 1:2638 2:3588 3:4560 
-64 1:237 2:421 3:585 
64 1:13 2:405 3:700 
64 1:1852 2:2195 3:2484 
-64 1:362 2:362 3:363 
64 1:146 2:564 3:1475 
-64 1:620 2:695 3:734 
-64 1:480 2:1135 3:1228 
-47.7473730683804 1:695 2:814 3:915 
64 1:0 2:0 3:0 
64 1:339 2:619 3:909 
-64 1:2 2:70 3:317 
64 1:1962 2:2632 3:2983 
64 1:4 2:6 3:6 
64 1:1662 2:1824 3:1875 
-64 1:100 2:177 3:313 
-64 1:354 2:354 3:354 
64 1:857 2:1533 3:2068 
-64 1:290 2:305 3:321 
-64 1:266 2:314 3:344 
-64 1:1 2:3 3:137 
64 1:7916 2:8126 3:8287 
-64 1:44 2:52 3:63 
-64 1:401 2:466 3:529 
-64 1:625 2:736 3:827 
-64 1:28 2:118 3:150 
64 1:293 2:765 3:1894 
64 1:3308 2:3434 3:3554 
64 1:172 2:724 3:1249 
64 1:0 2:169 3:831 
-64 1:540 2:567 3:581 
-64 1:34 2:89 3:91 
64 1:9623 2:11671 3:12978 
64 1:10137 2:14627 3:17056 
64 1:166 2:258 3:440 
-64 1:301 2:343 3:384 
-17.35023661799517 1:254 2:674 3:964 
-64 1:758 2:805 3:846 
0.5362846693662959 1:417 2:423 3:427 
-64 1:70 2:86 3:97 
64 1:1041 2:1333 3:1572 
-64 1:881 2:970 3:1025 
64 1:461 2:893 3:1299 
64 1:1552 2:2079 3:2604 
64 1:1066 2:1180 3:1255 
64 1:15 2:762 3:1595 
-64 1:298 2:360 3:381 
64 1:6 2:253 3:473 
64 1:475 2:924 3:1319 
-64 1:65 2:103 3:117 
-64 1:53 2:139 3:195 
-64 1:37 2:135 3:157 
64 1:378 2:815 3:1121 
64 1:2340 2:2623 3:2848 
-64 1:0 2:0 3:0 
-64 1:31 2:33 3:35 
64 1:1 2:221 3:500 
64 1:1246 2:1475 3:1627 
64 1:1792 2:2080 3:2319 
-64 1:677 2:814 3:908 
-64 1:13 2:18 3:26 
64 1:611 2:1155 3:1508 
-64 1:503 2:623 3:680 
64 1:512 2:744 3:902 
-64 1:101 2:112 3:119 
-64 1:911 2:992 3:1049 
64 1:1657 2:2053 3:2340 
-64 1:134 2:199 3:269 
-64 1:467 2:504 3:531 
64 1:4370 2:4924 3:5263 
-64 1:106 2:254 3:375 
64 1:3949 2:4221 3:4469 
-64 1:0 2:308 3:636 
-64 1:96 2:110 3:119 
-64 1:167 2:183 3:196 
64 1:1466 2:1705 3:1785 
64 1:1222 2:1353 3:1443 
64 1:2 2:3 3:323 
64 1:0 2:0 3:0 
64 1:306 2:979 3:1627 
-64 1:195 2:344 3:427 
64 1:2970 2:3707 3:4303 
-64 1:532 2:644 3:762 
-64 1:19 2:20 3:22 
-64 1:183 2:204 3:225 
-64 1:162 2:330 3:444 
-64 1:8 2:10 3:12 
64 1:1851 2:2342 3:2725 
-64 1:72 2:77 3:85 
64 1:82 2:227 3:451 
64 1:503 2:871 3:1230 
64 1:1371 2:1549 3:1645 
-64 1:10 2:10 3:10 
-64 1:143 2:170 3:187 
-64 1:836 2:953 3:1044 
64 1:430 2:1055 3:1771 
-64 1:5 2:11 3:26 
-64 1:43 2:86 3:114 
64 1:0 2:0 3:0 
-64 1:0 2:0 3:0 
-64 1:318 2:379 3:424 
64 1:1596 2:2107 3:2508 
-64 1:511 2:619 3:706 
64 1:2298 2:2950 3:3441 
-64 1:281 2:369 3:447 
64 1:1 2:10 3:411 
64 1:435 2:704 3:995 
-64 1:0 2:0 3:116 
-64 1:0 2:0 3:0 
-64 1:103 2:226 3:302 
64 1:1287 2:1499 3:1607 
64 1:0 2:14 3:960 
64 1:1729 2:1778 3:1826 
-64 1:352 2:403 3:462 
64 1:44 2:833 3:1412 
64 1:1102 2:1715 3:2241 
-64 1:1 2:68 3:146 
-64 1:267 2:377 3:513 
64 1:2889 2:3211 3:3276 
64 1:0 2:0 3:0 
-64 1:4 2:4 3:48 
-64 1:6 2:17 3:21 
-0.8843690605953043 1:384 2:736 3:746 
64 1:1843 2:2493 3:3011 
-64 1:96 2:116 3:119 
-64 1:689 2:853 3:971 
-64 1:374 2:431 3:474 
-64 1:486 2:548 3:585 
-64 1:40 2:90 3:128 
64 1:7839 2:10416 3:12567 
64 1:298 2:648 3:1025 
64 1:0 2:0 3:1568 
-64 1:991 2:1022 3:1036 
-64 1:0 2:218 3:399 
64 1:901 2:1444 3:1757 
-64 1:41 2:62 3:80 
-64 1:159 2:235 3:277 
64 1:1164 2:2353 3:3334 
64 1:276 2:1458 3:2811 
64 1:0 2:0 3:1056 
64 1:0 2:0 3:0 
64 1:0 2:1 3:906 
64 1:1872 2:2100 3:2236 
64 1:609 2:907 3:1196 
64 1:303 2:790 3:1247 
-64 1:530 2:549 3:573 
-64 1:578 2:729 3:850 
-64 1:310 2:526 3:613 
-64 1:624 2:839 3:996 
-64 1:41 2:184 3:288 
-64 1:6 2:16 3:26 
44.84754722921525 1:1458 2:1467 3:1478 
64 1:282 2:608 3:851 
-64 1:0 2:201 3:379 
-64 1:618 2:660 3:711 
-64 1:0 2:2 3:11 
-64 1:183 2:203 3:214 
64 1:246 2:558 3:883 
64 1:3261 2:3425 3:3542 
-64 1:700 2:751 3:785 
-64 1:2 2:6 3:65 
-64 1:364 2:413 3:434 
-64 1:273 2:328 3:373 
64 1:1800 2:1936 3:2038 
64 1:6014 2:6926 3:7652 
-64 1:9 2:9 3:25 
64 1:0 2:0 3:3241 
-64 1:230 2:348 3:367 
-64 1:297 2:315 3:330 
-64 1:320 2:375 3:426 
64 1:0 2:0 3:0 
64 1:1005 2:1125 3:1262 
-64 1:225 2:285 3:356 
-64 1:57 2:70 3:82 
64 1:574 2:1393 3:2179 
-64 1:107 2:315 3:452 
64 1:412 2:914 3:1378 
64 1:0 2:0 3:0 
64 1:6590 2:7584 3:8242 
-64 1:219 2:248 3:267 
64 1:41 2:381 3:1247 
64 1:4945 2:5944 3:6591 
-64 1:0 2:0 3:0 
64 1:7275 2:8481 3:9779 
64 1:6953 2:7212 3:7487 
-64 1:135 2:137 3:138 
64 1:115 2:863 3:1411 
64 1:844 2:1880 3:2685 
64 1:1362 2:1466 3:1545 
-64 1:524 2:613 3:666 
-64 1:506 2:669 3:820 
64 1:2062 2:4594 3:7089 
-64 1:227 2:287 3:355 
-64 1:156 2:171 3:178 
64 1:0 2:0 3:0 
-64 1:4 2:8 3:8 
-64 1:165 2:215 3:263 
64 1:1356 2:1382 3:1479 
-64 1:144 2:166 3:187 
64 1:9544 2:11628 3:13239 
64 1:0 2:2 3:93 
-64 1:135 2:205 3:211 
64 1:35 2:62 3:456 
64 1:371 2:705 3:1038 
64 1:696 2:1578 3:3427 
64 1:3231 2:3877 3:4399 
64 1:116 2:379 3:653 
64 1:0 2:0 3:0 
64 1:2428 2:2696 3:2874 
64 1:1028 2:1335 3:1550 
-64 1:238 2:292 3:368 
-64 1:108 2:247 3:334 
-64 1:329 2:403 3:551 
-64 1:40 2:77 3:105 
64 1:21 2:57 3:1500 
-64 1:0 2:6 3:14 
64 1:0 2:0 3:275 
64 1:1967 2:2245 3:2420 
64 1:333 2:1080 3:1517 
64 1:0 2:1812 3:3651 
64 1:2127 2:2226 3:2329 
-64 1:426 2:577 3:712 
64 1:234 2:369 3:508 
64 1:3884 2:4755 3:5469 
-64 1:246 2:309 3:343 
64 1:0 2:0 3:0 
-64 1:369 2:405 3:417 
64 1:3045 2:3228 3:3448 
-64 1:21 2:29 3:39 
64 1:14 2:20 3:20 
-64 1:269 2:353 3:444 
64 1:813 2:1365 3:1859 
-64 1:210 2:284 3:310 
-64 1:237 2:318 3:395 
64 1:0 2:0 3:0 
64 1:7 2:8 3:15 
64 1:2231 2:2509 3:2768 
-64 1:774 2:848 3:907 
-64 1:75 2:81 3:91 
64 1:887 2:2203 3:3385 
-64 1:646 2:762 3:848 
64 1:203 2:493 3:811 
-64 1:149 2:178 3:210 
-64 1:321 2:399 3:438 
-64 1:196 2:400 3:531 
64 1:1708 2:2138 3:2419 
-64 1:560 2:710 3:809 
-64 1:110 2:165 3:224 
-64 1:780 2:928 3:980 
-1.887071740963315 1:1270 2:1327 3:1373 
-64 1:0 2:0 3:0 
64 1:452 2:946 3:1389 
64 1:4250 2:4430 3:4564 
64 1:544 2:965 3:1332 
64 1:469 2:1443 3:2365 
-64 1:0 2:270 3:574 
64 1:247 2:554 3:971 
-64 1:115 2:237 3:326 
64 1:0 2:1 3:5 
-64 1:415 2:515 3:568 
64 1:0 2:697 3:1370 
64 1:3280 2:3970 3:4456 
-64 1:208 2:332 3:456 
64 1:3622 2:3675 3:3742 
-64 1:599 2:715 3:775 
-64 1:1 2:2 3:2 
64 1:3790 2:3942 3:4023 
-64 1:0 2:8 3:306 
64 1:1427 2:1750 3:2026 
-64 1:0 2:12 3:47 
-64 1:0 2:0 3:252 
64 1:698 2:2810 3:5090 
-64 1:0 2:0 3:0 
64 1:1588 2:1658 3:1713 
-64 1:0 2:0 3:0 
64 1:1226 2:2257 3:3024 
64 1:1947 2:2254 3:2554 
-64 1:571 2:648 3:721 
-64 1:0 2:0 3:0 
64 1:3999 2:4708 3:5558 
64 1:0 2:210 3:717 
-64 1:57 2:57 3:57 
64 1:1242 2:1797 3:2239 
-64 1:47 2:53 3:59 
-64 1:91 2:107 3:115 
64 1:0 2:114 3:337 
64 1:117 2:1021 3:1757 
-64 1:89 2:89 3:89 
-64 1:483 2:627 3:719 
-64 1:34 2:39 3:39 
64 1:2847 2:2861 3:2891 
64 1:2637 2:2637 3:2637 
-64 1:289 2:490 3:578 
-64 1:126 2:235 3:312 
64 1:2341 2:2685 3:2863 
64 1:0 2:0 3:0 
-64 1:301 2:393 3:480 
-64 1:0 2:20 3:58 
64 1:5 2:151 3:328 
-64 1:310 2:327 3:339 
64 1:511 2:659 3:782 
64 1:1980 2:2015 3:2016 
-64 1:172 2:202 3:230 
64 1:3011 2:3222 3:3396 
64 1:709 2:875 3:1037 
-64 1:667 2:823 3:933 
-64 1:121 2:121 3:125 
-64 1:103 2:319 3:389 
64 1:308 2:651 3:944 
64 1:2982 2:3699 3:4344 
64 1:2105 2:2440 3:2859 
64 1:2243 2:2774 3:3140 
64 1:363 2:940 3:1575 
-64 1:0 2:0 3:15 
64 1:88 2:948 3:1664 
-64 1:293 2:323 3:336 
64 1:15605 2:21955 3:30761 
-64 1:75 2:381 3:616 
64 1:1982 2:2705 3:3321 
64 1:0 2:0 3:0 
-64 1:244 2:261 3:275 
-64 1:282 2:320 3:347 
64 1:2426 2:3204 3:3723 
64 1:395 2:868 3:1247 
-64 1:2 2:2 3:2 
-64 1:5 2:46 3:87 
-64 1:2 2:2 3:3 
-64 1:544 2:681 3:823 
-64 1:97 2:154 3:199 
64 1:301 2:1094 3:1752 
64 1:867 2:1100 3:1275 
-64 1:0 2:1 3:4 
-64 1:842 2:867 3:867 
64 1:705 2:2457 3:4065 
-64 1:330 2:399 3:450 
64 1:616 2:947 3:1295 
-64 1:0 2:0 3:0 
64 1:3485 2:3841 3:4134 
64 1:8 2:9 3:9 
64 1:3 2:284 3:642 
-64 1:483 2:519 3:540 
64 1:5120 2:5785 3:6230 
64 1:41 2:395 3:803 
64 1:244 2:992 3:2258 
-64 1:488 2:498 3:511 
64 1:43 2:291 3:529 
-64 1:187 2:194 3:198 
64 1:1295 2:1565 3:1747 
64 1:0 2:0 3:0 
-64 1:29 2:39 3:45 
64 1:1020 2:1750 3:2741 
-64 1:101 2:128 3:143 
64 1:1296 2:1692 3:2010 
-64 1:0 2:0 3:0 
64 1:4655 2:5920 3:6863 
-64 1:0 2:15 3:92 
64 1:1100 2:1113 3:1136 
-64 1:0 2:0 3:0 
64 1:2944 2:3745 3:4487 
64 1:631 2:1178 3:1759 
64 1:277 2:1678 3:2897 
64 1:196 2:371 3:630 
64 1:2802 2:3105 3:3287 
-64 1:192 2:229 3:265 
64 1:0 2:0 3:0 
64 1:346 2:2452 3:4382 
64 1:2562 2:2932 3:3194 
64 1:2781 2:3248 3:3713 
64 1:1097 2:2455 3:3135 
-64 1:560 2:575 3:579 
64 1:1224 2:1854 3:2213 
64 1:2892 2:3462 3:4022 
-64 1:87 2:95 3:118 
-44.88419007903144 1:619 2:1055 3:1175 
-64 1:46 2:255 3:431 
1.631827676531571 1:996 2:1100 3:1208 
-64 1:53 2:261 3:441 
-64 1:622 2:632 3:636 
64 1:83 2:556 3:1009 
-64 1:10 2:12 3:21 
-64 1:21 2:26 3:26 
64 1:1886 2:2565 3:3050 
64 1:3654 2:4024 3:4391 
64 1:3478 2:4572 3:5025 
-64 1:371 2:437 3:505 
64 1:693 2:1115 3:1438 
64 1:0 2:0 3:0 
-64 1:499 2:570 3:631 
-64 1:502 2:630 3:715 
64 1:1050 2:1736 3:2279 
64 1:3106 2:3183 3:3225 
-64 1:22 2:38 3:69 
-64 1:0 2:0 3:0 
-64 1:731 2:816 3:895 
-64 1:792 2:830 3:870 
-64 1:399 2:401 3:416 
-64 1:0 2:180 3:351 
-64 1:0 2:0 3:0 
64 1:338 2:694 3:1007 
64 1:819 2:1043 3:1219 
-47.55520097990544 1:962 2:1088 3:1184 
-64 1:350 2:739 3:857 
64 1:0 2:176 3:519 
64 1:505 2:1295 3:2087 
64 1:5 2:7 3:10 
64 1:298 2:793 3:1340 
64 1:912 2:1668 3:2250 
-64 1:67 2:89 3:105 
64 1:1006 2:2858 3:3680 
-64 1:0 2:0 3:0 
-64 1:71 2:73 3:73 
-64 1:22 2:26 3:28 
-64 1:1 2:42 3:87 
-64 1:144 2:176 3:198 
-64 1:69 2:135 3:216 
64 1:812 2:1030 3:1286 
-64 1:580 2:639 3:704 
64 1:619 2:888 3:1145 
64 1:1814 2:1919 3:1969 
64 1:816 2:1489 3:2046 
-64 1:0 2:0 3:1 
64 1:0 2:0 3:526 
64 1:1378 2:1503 3:1616 
-64 1:32 2:74 3:103 
64 1:0 2:0 3:0 
-64 1:259 2:259 3:259 
64 1:677 2:1541 3:2455 
-64 1:0 2:0 3:0 
64 1:2885 2:2941 3:2987 
64 1:1811 2:2212 3:2524 
-64 1:64 2:169 3:438 
-64 1:187 2:399 3:583 
64 1:0 2:0 3:0 
64 1:1475 2:1542 3:1604 
64 1:613 2:1030 3:1412 
-64 1:34 2:139 3:233 
64 1:37 2:215 3:339 
-64 1:63 2:90 3:95 
64 1:1377 2:1626 3:1818 
64 1:329 2:650 3:1011 
-64 1:163 2:225 3:272 
-64 1:0 2:39 3:71 
64 1:909 2:1231 3:1509 
-64 1:205 2:231 3:251 
64 1:0 2:0 3:0 
64 1:709 2:1259 3:1857 
64 1:1973 2:4144 3:6430 
-64 1:18 2:22 3:24 
64 1:0 2:0 3:0 
-64 1:0 2:0 3:89 
64 1:521 2:979 3:1436 
-64 1:28 2:45 3:57 
64 1:594 2:1237 3:1726 
-64 1:439 2:572 3:671 
-64 1:660 2:698 3:744 
-64 1:198 2:246 3:280 
-64 1:0 2:48 3:195 
-64 1:355 2:499 3:647 
64 1:1004 2:2474 3:4092 
64 1:647 2:935 3:1156 
-64 1:587 2:777 3:898 
-64 1:179 2:232 3:278 
-64 1:65 2:210 3:370 
-64 1:540 2:632 3:716 
64 1:1312 2:1659 3:2011 
64 1:1266 2:1563 3:1750 
-64 1:0 2:0 3:40 
64 1:743 2:1088 3:1372 
-64 1:11 2:11 3:12 
64 1:0 2:0 3:0 
64 1:665 2:885 3:1070 
64 1:1056 2:1246 3:1505 
-64 1:256 2:323 3:405 
-64 1:112 2:151 3:170 
64 1:248 2:594 3:1015 
-64 1:315 2:345 3:374 
-64 1:0 2:56 3:108 
64 1:2535 2:2644 3:2731 
-64 1:1 2:1 3:1 
-64 1:407 2:453 3:482 
64 1:0 2:0 3:83 
64 1:0 2:90 3:290 
-64 1:0 2:0 3:0 
64 1:2410 2:2645 3:2864 
-64 1:43 2:59 3:78 
-64 1:190 2:215 3:230 
64 1:0 2:0 3:0 
64 1:0 2:0 3:0 
-64 1:81 2:164 3:220 
-64 1:224 2:261 3:275 
64 1:0 2:0 3:295 
64 1:746 2:963 3:1120 
-64 1:28 2:127 3:183 
64 1:2815 2:3435 3:3988 
-64 1:148 2:182 3:210 
64 1:31 2:716 3:1373 
-64 1:750 2:806 3:857 
64 1:338 2:848 3:1367 
-64 1:254 2:432 3:564 
64 1:2 2:153 3:1578 
-64 1:0 2:226 3:516 
-64 1:23 2:41 3:47 
64 1:2715 2:3352 3:3843 
64 1:1874 2:2304 3:2716 
-64 1:411 2:472 3:492 
64 1:0 2:0 3:477 
-64 1:22 2:39 3:54 
-64 1:325 2:354 3:384 
-64 1:0 2:105 3:312 
64 1:182 2:653 3:1016 
-64 1:53 2:56 3:56 
-64 1:25 2:50 3:69 
-64 1:269 2:388 3:485 
-64 1:651 2:710 3:756 
-3.165095187717384 1:673 2:880 3:1004 
-64 1:83 2:154 3:171 
-64 1:296 2:480 3:609 
64 1:996 2:1060 3:1133 
-64 1:407 2:473 3:522 
-64 1:12 2:18 3:21 
64 1:3 2:3 3:91 
64 1:765 2:1390 3:2012 
-64 1:594 2:701 3:767 
-64 1:402 2:468 3:512 
-64 1:45 2:183 3:331 
64 1:0 2:0 3:0 
64 1:7566 2:7675 3:7817 
64 1:1368 2:1532 3:1640 
-64 1:93 2:98 3:104 
-64 1:95 2:116 3:136 
-64 1:0 2:0 3:0 
-64 1:581 2:686 3:764 
64 1:1812 2:2227 3:2521 
64 1:1891 2:4032 3:5183 
64 1:0 2:882 3:2790 
64 1:190 2:560 3:889 
64 1:199 2:1523 3:2494 
64 1:261 2:665 3:958 
64 1:590 2:1149 3:1653 
-64 1:489 2:533 3:565 
64 1:3191 2:3254 3:3312 
64 1:0 2:0 3:0 
64 1:1 2:6 3:6 
14.68553301162581 1:81 2:359 3:590 
64 1:1039 2:1255 3:1461 
64 1:402 2:749 3:976 
64 1:8349 2:10535 3:12501 
-64 1:63 2:100 3:146 
-64 1:12 2:18 3:22 
64 1:8284 2:12216 3:15801 
-64 1:244 2:331 3:381 
64 1:111 2:381 3:867 
-64 1:0 2:0 3:0 
-64 1:0 2:0 3:67 
64 1:1575 2:2575 3:3314 
-64 1:95 2:199 3:296 
64 1:1580 2:2142 3:2495 
64 1:662 2:1213 3:1485 
-64 1:225 2:271 3:307 
-64 1:440 2:586 3:696 
64 1:379 2:734 3:1048 
64 1:3291 2:3425 3:3543 
64 1:0 2:0 3:0 
64 1:245 2:646 3:1099 
-64 1:651 2:737 3:798 
64 1:4 2:4 3:5 
-64 1:200 2:320 3:400 
-64 1:297 2:300 3:300 
-64 1:124 2:272 3:397 
-64 1:75 2:83 3:88 
64 1:80 2:639 3:1336 
-64 1:183 2:223 3:238 
-64 1:364 2:365 3:365 
64 1:6774 2:8274 3:10226 
64 1:1371 2:1477 3:1559 
-64 1:0 2:0 3:0 
-64 1:78 2:97 3:115 
-64 1:377 2:462 3:532 
64 1:47 2:872 3:1694 
-64 1:21 2:141 3:370 
-64 1:86 2:126 3:152 
-64 1:56 2:218 3:319 
-64 1:505 2:577 3:633 
64 1:2954 2:3717 3:4407 
64 1:646 2:871 3:1126 
64 1:0 2:0 3:0 
-64 1:739 2:867 3:911 
-64 1:358 2:662 3:863 
64 1:3374 2:3511 3:3665 
64 1:478 2:628 3:896 
64 1:2994 2:3974 3:4891 
-64 1:0 2:0 3:0 
-64 1:70 2:71 3:71 
64 1:2312 2:2732 3:4315 
-64 1:0 2:0 3:0 
-64 1:28 2:75 3:118 
-64 1:338 2:482 3:562 
-64 1:243 2:293 3:334 
-64 1:0 2:0 3:0 
-64 1:228 2:497 3:551 
-64 1:0 2:21 3:153 
-64 1:294 2:372 3:456 
64 1:691 2:1211 3:1816 
64 1:8 2:454 3:1485 
-64 1:401 2:586 3:641 
-64 1:0 2:0 3:9 
-64 1:26 2:67 3:145 
64 1:1068 2:1609 3:2058 
-64 1:13 2:18 3:36 
64 1:265 2:652 3:1149 
-64 1:0 2:0 3:0 
36.4842880905652 1:754 2:902 3:1024 
-64 1:0 2:0 3:0 
64 1:8 2:276 3:728 
64 1:1044 2:1412 3:1639 
64 1:927 2:1760 3:2455 
64 1:4 2:276 3:3270 
64 1:3824 2:4334 3:4607 
64 1:323 2:612 3:630 
-64 1:482 2:734 3:870 
64 1:399 2:766 3:1246 
64 1:232 2:479 3:711 
64 1:2946 2:3577 3:4054 
64 1:997 2:1274 3:1483 
64 1:157 2:507 3:1247 
-64 1:648 2:768 3:854 
-64 1:151 2:296 3:435 
64 1:0 2:0 3:0 
64 1:2371 2:2585 3:2773 
-64 1:170 2:200 3:217 
-64 1:244 2:311 3:370 
64 1:591 2:765 3:929 
64 1:320 2:708 3:1086 
64 1:138 2:505 3:828 
-64 1:196 2:320 3:386 
-64 1:133 2:264 3:381 
-64 1:116 2:133 3:149 
64 1:0 2:0 3:0 
64 1:543 2:1100 3:1699 
-64 1:0 2:0 3:72 
64 1:1743 2:2270 3:2772 
64 1:1820 2:3098 3:4228 
64 1:45 2:138 3:316 
-64 1:0 2:0 3:100 
-64 1:512 2:626 3:718 
-64 1:244 2:269 3:295 
64 1:2574 2:2836 3:3005 
-64 1:18 2:19 3:20 
-64 1:0 2:0 3:170 
-64 1:0 2:0 3:0 
-64 1:0 2:1 3:1 
-64 1:488 2:541 3:593 
64 1:2383 2:3640 3:4563 
64 1:2817 2:3692 3:4346 
64 1:2050 2:2318 3:2592 
-64 1:269 2:318 3:380 
64 1:270 2:563 3:815 
-64 1:735 2:783 3:814 
64 1:969 2:1215 3:1439 
-64 1:112 2:130 3:139 
64 1:5686 2:6659 3:7336 
64 1:0 2:133 3:1497 
-64 1:231 2:397 3:536 
-64 1:32 2:40 3:47 
64 1:1231 2:2505 3:3819 
64 1:0 2:0 3:377 
-64 1:17 2:48 3:64 
64 1:875 2:1162 3:1499 
64 1:238 2:730 3:1067 
-64 1:109 2:481 3:922 
64 1:1220 2:1341 3:1427 
-64 1:3 2:5 3:14 
-64 1:71 2:129 3:171 
64 1:896 2:1701 3:2292 
-64 1:236 2:287 3:320 
19.11491966340668 1:1003 2:1107 3:1320 
-64 1:481 2:598 3:665 
64 1:2108 2:2855 3:3362 
-64 1:61 2:203 3:398 
64 1:786 2:1296 3:1784 
-64 1:625 2:728 3:792 
-64 1:2 2:2 3:4 
-64 1:37 2:93 3:160 
-64 1:45 2:134 3:231 
64 1:1307 2:1484 3:1615 
64 1:563 2:1205 3:1493 
64 1:281 2:657 3:1047 
-64 1:84 2:290 3:475 
-64 1:601 2:776 3:864 
-64 1:0 2:72 3:141 
-64 1:113 2:138 3:157 
64 1:1075 2:1338 3:1575 
64 1:72 2:660 3:1202 
-64 1:0 2:0 3:2 
-64 1:1102 2:1114 3:1127 
-64 1:411 2:536 3:668 
-64 1:0 2:4 3:14 
64 1:1525 2:1977 3:2114 
-64 1:137 2:149 3:160 
64 1:2049 2:2628 3:3144 
-64 1:105 2:183 3:240 
64 1:121 2:505 3:934 
64 1:1772 2:2181 3:2353 
-64 1:288 2:326 3:356 
-64 1:423 2:437 3:450 
64 1:5223 2:6115 3:6496 
64 1:2886 2:2897 3:2907 
64 1:3372 2:4642 3:5169 
64 1:2677 2:3680 3:4433 
64 1:329 2:643 3:986 
-64 1:640 2:662 3:687 
64 1:4 2:490 3:1230 
64 1:0 2:0 3:0 
-64 1:581 2:641 3:695 
-64 1:173 2:205 3:236 
-64 1:3 2:12 3:18 
64 1:4 2:1163 3:2039 
64 1:4323 2:4802 3:5011 
-64 1:250 2:337 3:416 
64 1:1754 2:1755 3:1755 
-64 1:145 2:167 3:195 
-64 1:481 2:491 3:493 
64 1:1143 2:1467 3:1758 
-64 1:258 2:280 3:299 
64 1:600 2:1148 3:1706 
25.24792846533148 1:1456 2:1489 3:1504 
-64 1:93 2:120 3:144 
-64 1:1004 2:1014 3:1021 
64 1:3174 2:3730 3:4313 
-64 1:326 2:354 3:372 
-64 1:230 2:445 3:639 
-64 1:129 2:162 3:185 
64 1:4390 2:4997 3:5516 
-64 1:264 2:339 3:400 
-15.88069444838254 1:13 2:86 3:193 
-64 1:100 2:236 3:360 
-64 1:549 2:690 3:792 
64 1:7020 2:8284 3:8962 
64 1:1022 2:1642 3:2146 
64 1:0 2:215 3:548 
64 1:0 2:0 3:0 
-64 1:510 2:627 3:679 
-64 1:0 2:20 3:81 
-64 1:0 2:1 3:4 
-64 1:224 2:254 3:277 
64 1:975 2:1166 3:1310 
-64 1:85 2:100 3:114 
-64 1:151 2:171 3:195 
-64 1:0 2:0 3:0 
64 1:259 2:461 3:643 
64 1:192 2:613 3:940 
64 1:835 2:1796 3:2578 
-64 1:38 2:86 3:118 
-64 1:91 2:211 3:316 
-64 1:982 2:1013 3:1028 
64 1:0 2:0 3:269 
64 1:0 2:0 3:0 
64 1:4881 2:5669 3:6608 
-64 1:1 2:52 3:77 
-64 1:200 2:227 3:250 
-64 1:22 2:144 3:283 
-64 1:1205 2:1232 3:1259 
64 1:1844 2:2299 3:2682 
-64 1:238 2:266 3:301 
-64 1:166 2:353 3:484 
-64 1:137 2:216 3:223 
64 1:1193 2:1652 3:1996 
-64 1:153 2:177 3:198 
-64 1:246 2:300 3:343 
64 1:2 2:3 3:3 
64 1:1341 2:1665 3:1931 
64 1:0 2:0 3:0 
2.115395617104241 1:518 2:816 3:956 
-64 1:30 2:55 3:88 
-64 1:116 2:197 3:291 
64 1:2919 2:2969 3:3077 
64 1:189 2:618 3:1032 
64 1:0 2:0 3:1384 
64 1:427 2:1021 3:1467 
64 1:3945 2:5377 3:6366 
64 1:1403 2:1485 3:1565 
-64 1:571 2:668 3:731 
-64 1:5 2:7 3:8 
64 1:5274 2:6266 3:8698 
-64 1:71 2:72 3:74 
-64 1:257 2:296 3:309 
-64 1:63 2:124 3:172 
64 1:3134 2:4010 3:4816 
-64 1:14 2:64 3:106 
-64 1:518 2:758 3:947 
-27.88511725217836 1:347 2:608 3:809 
64 1:0 2:0 3:0 
64 1:5046 2:5759 3:6222 
64 1:894 2:1215 3:1497 
64 1:2147 2:2193 3:2241 
64 1:2129 2:2389 3:2558 
-64 1:668 2:771 3:865 
-64 1:212 2:231 3:240 
64 1:896 2:2324 3:3671 
64 1:244 2:510 3:750 
64 1:4640 2:5939 3:7539 
64 1:16 2:19 3:19 
-64 1:16 2:21 3:27 
64 1:1822 2:2327 3:2710 
-64 1:867 2:993 3:1075 
-64 1:15 2:38 3:59 
-64 1:1 2:75 3:193 
-64 1:18 2:19 3:20 
64 1:129 2:568 3:840 
64 1:2651 2:3185 3:3504 
-64 1:120 2:141 3:147 
-64 1:0 2:0 3:162 
-64 1:225 2:274 3:308 
-64 1:978 2:1117 3:1200 
64 1:509 2:2504 3:3334 
-64 1:2 2:100 3:314 
-64 1:183 2:213 3:233 
-64 1:311 2:355 3:398 
-64 1:804 2:909 3:966 
64 1:3425 2:3740 3:3935 
-23.31336324613983 1:0 2:0 3:0 
64 1:0 2:227 3:696 
64 1:7684 2:7866 3:8040 
-64 1:134 2:181 3:220 
-64 1:94 2:258 3:345 
64 1:8 2:14 3:222 
64 1:1803 2:1979 3:2092 
-64 1:879 2:960 3:1008 
64 1:5043 2:6131 3:6701 
-64 1:126 2:168 3:211 
-64 1:441 2:563 3:674 
-64 1:641 2:750 3:838 
64 1:269 2:980 3:1912 
-64 1:131 2:311 3:531 
-64 1:5 2:5 3:7 
64 1:944 2:1492 3:1929 
64 1:2980 2:3141 3:3261 
64 1:4279 2:4875 3:5239 
64 1:1243 2:2843 3:4053 
-64 1:301 2:471 3:637 
64 1:1656 2:3912 3:5939 
64 1:69 2:471 3:846 
-64 1:84 2:96 3:103 
-64 1:1089 2:1092 3:1092 
64 1:2428 2:2968 3:3312 
-64 1:0 2:0 3:0 
64 1:1 2:129 3:1166 
64 1:2280 2:2937 3:3382 
-64 1:3 2:8 3:16 
-47.90125754602143 1:216 2:490 3:692 
-64 1:19 2:65 3:70 
-16.62662302422325 1:6 2:49 3:287 
64 1:1629 2:3038 3:3965 
-64 1:417 2:518 3:604 
64 1:0 2:0 3:289 
-64 1:5 2:190 3:435 
-64 1:510 2:596 3:689 
-64 1:0 2:10 3:147 
-64 1:222 2:240 3:255 
-64 1:107 2:107 3:107 
64 1:3441 2:4761 3:6235 
64 1:1018 2:1420 3:1678 
64 1:0 2:0 3:0 
-64 1:0 2:124 3:574 
64 1:1180 2:1392 3:1633 
-64 1:892 2:917 3:936 
64 1:853 2:1087 3:1198 
64 1:439 2:806 3:1016 
-64 1:0 2:0 3:0 
-64 1:194 2:300 3:382 
-64 1:175 2:305 3:452 
64 1:333 2:340 3:402 
-64 1:46 2:48 3:53 
-64 1:107 2:243 3:291 
64 1:9 2:12 3:13 
-64 1:482 2:531 3:578 
-64 1:351 2:365 3:370 
64 1:5 2:11 3:13 
-40.60776999265579 1:955 2:1112 3:1195 
-64 1:161 2:178 3:196 
64 1:5 2:6 3:6 
-64 1:112 2:114 3:114 
64 1:3681 2:4373 3:4875 
64 1:1358 2:1593 3:1753 
-64 1:0 2:0 3:28 
-64 1:778 2:870 3:938 
64 1:0 2:24 3:875 
64 1:533 2:916 3:1186 
64 1:5978 2:6409 3:6828 
-64 1:44 2:75 3:153 
-64 1:118 2:204 3:280 
64 1:58 2:642 3:1250 
-64 1:9 2:20 3:24 
-64 1:100 2:248 3:357 
-64 1:0 2:0 3:0 
-64 1:544 2:693 3:804 
-64 1:0 2:0 3:0 
-64 1:0 2:0 3:164 
64 1:0 2:0 3:0 
64 1:3764 2:4441 3:4998 
64 1:647 2:912 3:1150 
-64 1:744 2:781 3:805 
-64 1:18 2:42 3:60 
64 1:878 2:1146 3:1409 
-64 1:427 2:501 3:539 
-64 1:222 2:373 3:518 
-64 1:20 2:127 3:215 
-64 1:67 2:368 3:614 
64 1:2562 2:4041 3:4865 
-64 1:604 2:785 3:869 
64 1:0 2:0 3:0 
-64 1:62 2:79 3:89 
64 1:1212 2:1484 3:1763 
64 1:500 2:1417 3:2272 
64 1:1391 2:1506 3:1626 
64 1:0 2:0 3:0 
64 1:158 2:446 3:671 
64 1:5602 2:6908 3:7860 
64 1:714 2:1462 3:1837 
-64 1:156 2:210 3:258 
64 1:3993 2:4648 3:7381 
-64 1:153 2:244 3:368 
64 1:4 2:48 3:601 
64 1:542 2:1071 3:1718 
-64 1:84 2:95 3:106 
-64 1:9 2:9 3:9 
-64 1:115 2:124 3:131 
-64 1:245 2:281 3:303 
31.9479806394213 1:631 2:752 3:888 
64 1:1358 2:1819 3:2194 
-64 1:225 2:290 3:348 
-64 1:191 2:333 3:413 
64 1:2356 2:2561 3:2681 
-64 1:270 2:281 3:289 
6.111450667941313 1:1 2:499 3:914 
-64 1:29 2:98 3:191 
-64 1:105 2:143 3:194 
64 1:1576 2:2003 3:2308 
64 1:0 2:0 3:54 
-64 1:5 2:100 3:242 
64 1:17869 2:18431 3:19177 
64 1:585 2:741 3:869 
-64 1:142 2:173 3:205 
-64 1:0 2:0 3:0 
25.07705172831322 1:949 2:1184 3:1340 
-64 1:190 2:309 3:387 
-64 1:217 2:235 3:244 
64 1:723 2:1028 3:1288 
64 1:275 2:853 3:1392 
64 1:853 2:1016 3:1203 
-64 1:9 2:80 3:133 
64 1:0 2:8 3:779 
64 1:2374 2:2497 3:2715 
-64 1:117 2:138 3:157 
-64 1:144 2:163 3:174 
-64 1:312 2:340 3:373 
-64 1:1 2:43 3:86 
-64 1:577 2:653 3:726 
64 1:613 2:1230 3:1913 
-64 1:0 2:0 3:1 
-64 1:11 2:14 3:14 
-64 1:123 2:142 3:164 
64 1:312 2:774 3:1089 
64 1:0 2:0 3:0 
64 1:696 2:870 3:1007 
64 1:0 2:762 3:1938 
-64 1:0 2:0 3:0 
-64 1:14 2:14 3:14 
-64 1:794 2:897 3:988 
64 1:0 2:0 3:0 
-64 1:38 2:84 3:122 
-64 1:244 2:272 3:289 
-64 1:1013 2:1032 3:1050 
-64 1:25 2:58 3:81 
64 1:1937 2:2670 3:3387 
-64 1:94 2:187 3:285 
64 1:2745 2:3137 3:3443 
-64 1:0 2:0 3:130 
-64 1:110 2:137 3:157 
-64 1:92 2:185 3:242 
64 1:1129 2:1401 3:1649 
64 1:584 2:1210 3:2013 
64 1:813 2:1690 3:2607 
64 1:1747 2:2077 3:2304 
-64 1:185 2:214 3:252 
64 1:20 2:1071 3:1813 
64 1:0 2:0 3:0 
64 1:1309 2:3646 3:5693 
64 1:3325 2:8317 3:10835 
-64 1:134 2:163 3:190 
64 1:1556 2:2026 3:2284 
64 1:105 2:195 3:234 
-64 1:0 2:62 3:363 
64 1:7 2:203 3:669 
64 1:4 2:78 3:578 
64 1:683 2:1547 3:2437 
64 1:500 2:1919 3:3609 
-64 1:614 2:763 3:839 
64 1:0 2:0 3:405 
-64 1:29 2:55 3:76 
-64 1:0 2:0 3:0 
-64 1:21 2:200 3:241 
64 1:2006 2:2554 3:2990 
-64 1:572 2:668 3:729 
64 1:390 2:763 3:1090 
20.4523984278261 1:569 2:696 3:811 
64 1:4589 2:4833 3:5110 
64 1:1149 2:1529 3:1820 
-64 1:58 2:62 3:64 
64 1:13 2:285 3:509 
64 1:3114 2:3525 3:3953 
64 1:998 2:1298 3:1501 
64 1:0 2:0 3:0 
64 1:3192 2:3415 3:3638 
64 1:67 2:164 3:400 
-64 1:0 2:0 3:0 
-64 1:451 2:454 3:459 
-64 1:0 2:0 3:0 
-64 1:453 2:624 3:780 
64 1:404 2:940 3:1522 
64 1:164 2:474 3:797 
64 1:2274 2:2548 3:2730 
64 1:0 2:0 3:0 
-64 1:168 2:397 3:561 
64 1:1459 2:1586 3:1675 
64 1:2246 2:2741 3:3023 
-64 1:682 2:809 3:917 
64 1:99 2:1051 3:2028 
64 1:406 2:1191 3:2111 
64 1:0 2:0 3:431 
64 1:62 2:853 3:2760 
64 1:0 2:0 3:0 
-64 1:279 2:329 3:351 
64 1:0 2:0 3:0 
-64 1:740 2:758 3:787 
64 1:1256 2:1483 3:1657 
-64 1:1 2:1 3:1 
-64 1:140 2:306 3:377 
-64 1:787 2:898 3:993 
-64 1:134 2:147 3:155 
-64 1:779 2:856 3:912 
-64 1:654 2:721 3:756 
64 1:3627 2:4430 3:5282 
64 1:8 2:347 3:735 
-64 1:0 2:0 3:0 
64 1:0 2:1548 3:3303 
64 1:302 2:678 3:981 
64 1:4180 2:4586 3:4610 
-64 1:1041 2:1136 3:1207 
64 1:216 2:391 3:545 
-64 1:663 2:681 3:704 
-64 1:26 2:35 3:39 
64 1:2171 2:2972 3:3512 
-64 1:178 2:235 3:281 
-64 1:35 2:107 3:190 
-64 1:616 2:649 3:716 
-64 1:21 2:44 3:57 
-64 1:916 2:945 3:972 
64 1:219 2:1495 3:1921 
64 1:0 2:0 3:0 
64 1:86 2:177 3:265 
-22.88329398487826 1:902 2:1041 3:1131 
64 1:0 2:0 3:430 
64 1:960 2:1138 3:1289 
64 1:3284 2:3828 3:4264 
-64 1:18 2:29 3:37 
64 1:58 2:368 3:570 
-64 1:478 2:484 3:489 
-64 1:568 2:577 3:587 
-64 1:292 2:384 3:445 
64 1:7 2:342 3:1460 
64 1:352 2:679 3:997 
-64 1:603 2:702 3:753 
64 1:1487 2:1602 3:1693 
64 1:0 2:0 3:0 
-64 1:733 2:768 3:797 
-64 1:167 2:200 3:227 
-64 1:0 2:0 3:0 
64 1:327 2:1572 3:3079 
-64 1:189 2:327 3:415 
64 1:13 2:487 3:867 
-64 1:95 2:134 3:163 
64 1:0 2:130 3:398 
64 1:562 2:1106 3:1616 
-64 1:27 2:27 3:28 
-64 1:1073 2:1083 3:1094 
64 1:0 2:0 3:0 
-64 1:1031 2:1052 3:1066 
-64 1:245 2:348 3:495 
4.285488684946927 1:1037 2:1144 3:1235 
-64 1:561 2:601 3:640 
64 1:1595 2:2605 3:4040 
-64 1:58 2:64 3:66 
64 1:0 2:0 3:0 
64 1:3328 2:3754 3:4099 
64 1:1833 2:2184 3:2519 
-64 1:0 2:0 3:0 
64 1:3365 2:3711 3:4114 
64 1:2641 2:2707 3:2750 
-64 1:504 2:578 3:644 
64 1:7240 2:7420 3:7582 
-64 1:28 2:40 3:52 
64 1:168 2:220 3:258 
64 1:389 2:1004 3:1361 
64 1:1001 2:3624 3:5812 
-64 1:852 2:1012 3:1124 
-64 1:50 2:95 3:126 
64 1:3096 2:4609 3:5006 
64 1:720 2:1485 3:2161 
64 1:22 2:361 3:606 
-64 1:9 2:73 3:102 
64 1:2 2:218 3:1249 
64 1:7255 2:7682 3:7912 
64 1:7075 2:8535 3:9636 
-64 1:1017 2:1043 3:1059 
64 1:1032 2:1438 3:1758 
-64 1:13 2:14 3:17 
-64 1:324 2:329 3:329 
64 1:2425 2:3029 3:3527 
64 1:26 2:614 3:658 
64 1:0 2:395 3:885 
64 1:103 2:276 3:363 
-64 1:238 2:253 3:264 
64 1:450 2:734 3:928 
-64 1:0 2:0 3:6 
64 1:1198 2:2239 3:2946 
-64 1:536 2:630 3:701 
-64 1:135 2:164 3:178 
-64 1:93 2:185 3:251 
64 1:1997 2:2269 3:2588 
-64 1:103 2:116 3:136 
64 1:0 2:0 3:0 
64 1:911 2:1931 3:2856 
-64 1:314 2:415 3:479 
64 1:0 2:0 3:0 
64 1:111 2:309 3:474 
