svm_type epsilon_svr
kernel_type rbf
gamma 0.125
nr_class 2
total_sv 1317
rho -2.41548
SV
128 1:0 2:1.6812412 3:2.2900346 
128 1:3.3754807 2:3.3974185 3:3.4337698 
-128 1:2.5751878 2:2.651278 3:2.7109631 
128 1:0 2:0 3:0 
-128 1:0 2:0 3:1.94939 
-128 1:2.209515 2:2.5185139 3:2.647383 
-128 1:3.4871384 2:3.5395779 3:3.5761109 
-128 1:2.9503649 2:2.9623693 3:2.9712758 
128 1:2.7686381 2:2.890421 3:2.9532763 
-128 1:1.69897 2:1.9242793 3:1.9912261 
-128 1:2.0791812 2:2.1492191 3:2.1673173 
-128 1:3.3432116 2:3.4000196 3:3.4421661 
128 1:0 2:0.47712125 3:1.94939 
128 1:2.7619278 2:2.8627275 3:2.9294189 
-128 1:1.3222193 2:2.30103 3:2.382017 
128 1:3.553883 2:3.6419696 3:3.7052649 
-128 1:2.79588 2:2.8621314 3:2.8987252 
128 1:0 2:0 3:0 
128 1:2.8773713 2:3.4611983 3:3.742568 
128 1:1.7242759 2:1.7242759 3:1.7242759 
128 1:2.1931246 2:2.4578819 3:2.6159501 
-128 1:3.5627685 2:3.604658 3:3.6425634 
-128 1:1.8325089 2:2.8704039 3:3.1179338 
128 1:2.7611758 2:2.8149132 3:2.8609366 
128 1:2.9132839 2:3.0182843 3:3.0860037 
128 1:3.0937718 2:3.1376705 3:3.1826999 
-128 1:3.2600714 2:3.4910814 3:3.626135 
-128 1:0 2:0 3:0 
128 1:3.2951271 2:3.6174197 3:3.808211 
128 1:2.4116197 2:2.5403295 3:2.6314438 
-128 1:2.5611014 2:2.6042261 3:2.6522463 
128 1:0 2:0 3:0 
128 1:0 2:0.77815125 3:1.146128 
-128 1:2.7937904 2:2.8007171 3:2.8034571 
-128 1:0 2:0 3:0 
128 1:1.763428 2:1.80618 3:1.8195439 
128 1:2.813581 2:2.8512583 3:2.8785218 
-128 1:1.544068 2:1.7923917 3:2.6589648 
128 1:2.0334238 2:2.392697 3:2.5237465 
-128 1:0.30103 2:2.2855573 3:2.7895807 
-128 1:2.5171959 2:2.8518696 3:3.0326188 
-128 1:1.8692317 2:2.1583625 3:2.2405492 
-128 1:2.064458 2:2.2944662 3:2.463893 
-128 1:2.5763414 2:2.647383 3:2.6766936 
-128 1:2.2013971 2:2.3710679 3:2.4424798 
128 1:0 2:0 3:0 
-128 1:2.155336 2:2.5774918 3:2.7701153 
128 1:1.7923917 2:1.8976271 3:1.94939 
128 1:0 2:0 3:0 
128 1:2.5693739 2:2.6404814 3:2.7032914 
-128 1:2.3031961 2:2.6424645 3:2.7937904 
-128 1:3.0094509 2:3.3812956 3:3.569608 
-128 1:3.3142887 2:3.662191 3:3.850585 
-128 1:0 2:0 3:0 
-128 1:2.6304279 2:3.0090257 3:3.1664301 
-128 1:2.155336 2:2.7520484 3:2.9420081 
128 1:2.0530784 2:2.4502491 3:2.6095944 
128 1:2.5289167 2:2.9283959 3:3.1357685 
128 1:1.9777236 2:2.064458 3:2.1335389 
-128 1:2.6812412 2:3.0549959 3:3.0891984 
128 1:0.95424251 2:1.1760913 3:1.3222193 
-128 1:0 2:0 3:0 
-128 1:0 2:0 3:0 
-128 1:2.4297523 2:2.9912261 3:3.2814879 
-128 1:2.6444386 2:2.9740509 3:3.1592663 
50.76685065582678 1:0.60205999 2:2.4409091 3:3.5145478 
128 1:3.0951694 2:3.2229764 3:3.2981979 
128 1:1.7993405 2:2.0934217 3:2.2355284 
-128 1:1.20412 2:2.4913617 3:2.7767012 
128 1:0 2:2.9849771 3:3.2968845 
128 1:2.307496 2:2.3856063 3:2.4409091 
-128 1:2.8254261 2:2.8959747 3:2.9395193 
-26.50094458353896 1:1.5185139 2:1.5797836 3:1.6334685 
128 1:2.4742163 2:2.8992732 3:3.1271048 
128 1:3.128076 2:3.2227165 3:3.2935835 
128 1:1.8920946 2:1.9542425 3:1.9867717 
-128 1:1.8260748 2:2.1673173 3:2.3944517 
128 1:0 2:0 3:0 
128 1:1.8864907 2:2.071882 3:2.1875207 
128 1:2.930949 2:3.0362295 3:3.0784568 
128 1:3.6166855 2:3.7086758 3:3.7704101 
128 1:1.8388491 2:2.6730209 3:2.9273704 
-128 1:3.2946866 2:3.469822 3:3.5459253 
-128 1:2.9831751 2:3.0542299 3:3.0948204 
-128 1:1.1139434 2:2.4548449 3:2.7067178 
-128 1:2.5289167 2:2.683047 3:2.7497363 
128 1:2.1583625 2:2.2455127 3:2.2966652 
-128 1:0 2:0 3:0 
128 1:0 2:0 3:0 
128 1:3.0086002 2:3.243038 3:3.437909 
-128 1:1.5314789 2:1.94939 3:1.9590414 
-128 1:3.3847117 2:3.4812993 3:3.5474055 
128 1:2.0170333 2:2.0681859 3:2.0827854 
128 1:2.4116197 2:2.8813847 3:3.0606978 
128 1:2.7201593 2:2.8591383 3:2.9420081 
128 1:2.2671717 2:2.4456042 3:2.5477747 
128 1:3.0236639 2:3.095518 3:3.1775365 
128 1:2.6444386 2:2.7505084 3:2.8286599 
128 1:0 2:0 3:2.6344773 
-128 1:2.9479236 2:3.3430145 3:3.5295587 
128 1:0 2:0 3:0 
128 1:2.9604708 2:3.4715851 3:3.6917002 
-128 1:0 2:2.2833012 3:2.7160033 
128 1:0 2:1.30103 3:1.763428 
128 1:3.4692327 2:3.5535189 3:3.6078837 
128 1:2.3873898 2:2.7075702 3:2.8750613 
-76.87026046617019 1:0 2:0 3:0.30103 
-128 1:2.4885507 2:2.6954817 3:2.813581 
-128 1:2.9253121 2:2.9380191 3:2.9380191 
128 1:2.2201081 2:2.4116197 3:2.6434527 
-128 1:3.2550312 2:3.3514098 3:3.4068807 
128 1:3.6966185 2:3.7209857 3:3.7419391 
-128 1:1.5910646 2:2.6848454 3:2.9790929 
-128 1:0 2:0 3:1.7403627 
128 1:2.9420081 2:3.0652061 3:3.1758016 
128 1:2.4983106 2:2.7058637 3:2.7874605 
-128 1:2.6766936 2:2.965672 3:3.1202448 
128 1:0.90308999 2:2.4409091 3:2.8621314 
-128 1:3.1631614 2:3.1728947 3:3.1772478 
-128 1:2.1583625 2:2.2121876 3:2.2405492 
128 1:2.3222193 2:2.3838154 3:2.4216039 
-128 1:0 2:0 3:0.60205999 
-128 1:3.1122698 2:3.1945143 3:3.2422929 
-128 1:0.84509804 2:1.0791812 3:1.30103 
-128 1:2.5976952 2:2.6394865 3:2.69897 
-128 1:2.2600714 2:2.8149132 3:3.0068937 
128 1:3.2727696 2:3.3624825 3:3.4339298 
128 1:1.69897 2:1.9867717 3:2.2405492 
128 1:0 2:0 3:0 
-128 1:3.220631 2:3.2610248 3:3.2730013 
128 1:2.8591383 2:3.0119931 3:3.1099159 
128 1:3.1760913 2:3.2518815 3:3.2944662 
128 1:3.1908917 2:3.3178545 3:3.415641 
-128 1:2.4996871 2:2.5237465 3:2.5365584 
128 1:0 2:0 3:0 
128 1:1.6334685 2:1.770852 3:1.8920946 
-128 1:0 2:0 3:0 
-128 1:3.7483431 2:3.8393523 3:3.8954225 
128 1:0 2:0 3:0 
-128 1:0 2:0 3:2.6211763 
128 1:2.6031444 2:2.7678976 3:2.806858 
-128 1:0 2:2.4885507 3:2.8034571 
-128 1:3.0077478 2:3.1522883 3:3.224792 
-128 1:2.3838154 2:2.7678976 3:2.9854265 
128 1:1.2552725 2:1.462398 3:1.5682017 
128 1:2.4683473 2:2.5705429 3:2.6589648 
128 1:1.763428 2:1.8512583 3:1.90309 
128 1:3.3094172 2:3.4605972 3:3.5487578 
128 1:2.4265113 2:2.5763414 3:2.7101174 
-128 1:2.1105897 2:2.1105897 3:2.1105897 
128 1:1.6434527 2:1.8750613 3:2.1846914 
128 1:0.69897 2:2.1789769 3:2.5158738 
128 1:2.8668778 2:2.9489018 3:2.9978231 
-128 1:2.4785665 2:2.5352941 3:2.5843312 
-128 1:2.5490033 2:2.5490033 3:2.5490033 
-128 1:2.806858 2:2.8750613 3:2.923244 
-128 1:2.8122447 2:2.9148718 3:2.9355073 
-128 1:1.6532125 2:1.7781513 3:1.8325089 
128 1:2.3483049 2:2.4424798 3:2.5415792 
128 1:2.7626786 2:3.0334238 3:3.2352759 
128 1:2.5611014 2:2.6159501 3:2.6374897 
128 1:3.3484996 2:3.3995007 3:3.4421661 
-128 1:3.2674064 2:3.3695869 3:3.4353665 
-128 1:2.9599948 2:3.222196 3:3.3521825 
-128 1:3.307496 2:3.373096 3:3.4127964 
-128 1:1.4913617 2:1.5185139 3:1.544068 
128 1:3.1296899 2:3.1565492 3:3.1775365 
-128 1:2.5599066 2:2.9731279 3:3.1972806 
-128 1:2.4199557 2:2.4668676 3:2.510545 
128 1:1.2787536 2:1.8129134 3:1.845098 
-128 1:1.3424227 2:2.1583625 3:2.4517864 
128 1:2.7371926 2:2.9726656 3:3.0759118 
-128 1:0 2:0 3:0 
128 1:1.9956352 2:3.0216027 3:3.307068 
-128 1:0 2:0 3:0 
128 1:2.6532125 2:2.8656961 3:2.967548 
128 1:3.1945143 2:3.276002 3:3.3128118 
-128 1:0 2:2.506505 3:2.8756399 
-128 1:2.462398 2:2.4785665 3:2.4927604 
128 1:3.1458177 2:3.3248995 3:3.391288 
-128 1:3.2005769 2:3.4127964 3:3.6539839 
128 1:3.1610684 2:3.3863206 3:3.5225746 
-128 1:2.2227165 2:2.30103 3:2.3560259 
128 1:0.90308999 2:2.5403295 3:2.8662873 
-128 1:3.1832698 2:3.2960067 3:3.325105 
-128 1:2.7101174 2:2.9800034 3:3.1427022 
-128 1:2.4712917 2:2.6812412 3:2.7846173 
-128 1:2.9903389 2:3.0480532 3:3.0791812 
128 1:0.47712125 2:0.47712125 3:1.9590414 
-128 1:2.2671717 2:2.3242825 3:2.3324385 
128 1:0.95424251 2:1.30103 3:1.3802112 
-118.8950795219511 1:0 2:0 3:3.0740847 
128 1:0 2:0 3:0 
-128 1:0 2:2.3961993 3:3.314078 
128 1:3.1248301 2:3.1325798 3:3.1379867 
128 1:2.0334238 2:2.1139434 3:2.1522883 
128 1:1.6434527 2:1.94939 3:2.2227165 
128 1:3.1031193 2:3.2024883 3:3.2803507 
128 1:1.50515 2:1.8692317 3:2.0128372 
128 1:3.5984622 2:3.6094877 3:3.619615 
128 1:2.0934217 2:2.4345689 3:2.5987905 
128 1:3.4652341 2:3.4726102 3:3.4881275 
128 1:0.77815125 2:1.39794 3:1.5314789 
-128 1:3.0480532 2:3.0845763 3:3.0927206 
128 1:2.456366 2:2.9647309 3:3.189771 
-49.05023669917814 1:2.6384893 2:2.8475727 3:2.9978231 
128 1:2.920645 2:3.069298 3:3.1550322 
10.92890855751409 1:3.1513699 2:3.1906118 3:3.206556 
128 1:2.3560259 2:2.6434527 3:2.764923 
-128 1:0 2:0 3:0 
-128 1:0.30103 2:2.0334238 3:2.7331973 
-128 1:0 2:0 3:2.09691 
128 1:0 2:0 3:0 
128 1:0 2:2.3560259 3:2.8426092 
-128 1:1.39794 2:2.1238516 3:2.3909351 
-128 1:0 2:0 3:2.3159703 
128 1:0 2:0 3:3.1953461 
-128 1:2.9772662 2:3.0733517 3:3.1271048 
128 1:1.1760913 2:2.881955 3:3.2027607 
128 1:2.6253125 2:2.6954817 3:2.7520484 
-128 1:2.1271048 2:2.2576786 3:2.3424227 
128 1:0 2:0 3:0 
-128 1:0 2:0 3:0 
128 1:0 2:0 3:0 
128 1:0.69897 2:0.77815125 3:0.77815125 
128 1:2.69897 2:3.283075 3:3.5573869 
128 1:1.6532125 2:2.0413927 3:2.0791812 
-128 1:3.4413809 2:3.6749529 3:3.8169038 
128 1:2.6424645 2:2.757396 3:2.8267225 
128 1:2.3242825 2:2.372912 3:2.3996737 
-128 1:2.2253093 2:2.5987905 3:2.7489629 
-128 1:3.0013009 2:3.0441476 3:3.1205739 
128 1:0.69897 2:0.84509804 3:0.95424251 
-128 1:1.2787536 2:1.30103 3:1.3424227 
-128 1:2.1367206 2:2.1818436 3:2.2329961 
-128 1:0 2:0 3:0 
-128 1:0 2:0 3:1.1760913 
128 1:1.544068 2:1.7853298 3:1.9542425 
128 1:2.6201361 2:2.7143298 3:2.7810369 
-128 1:2.7419391 2:2.8668778 3:2.9365137 
128 1:1.447158 2:1.6532125 3:1.7558749 
-128 1:1.6127839 2:1.6434527 3:1.7075702 
-128 1:3.1682027 2:3.3193143 3:3.3977663 
128 1:1.4313638 2:1.94939 3:2.2013971 
-128 1:2 2:2.2600714 3:2.4502491 
128 1:3.0526939 2:3.1464381 3:3.2172207 
128 1:3.024896 2:3.3972446 3:3.567144 
128 1:2.7986506 2:2.865104 3:2.9074114 
128 1:3.4727564 2:3.5690226 3:3.6337713 
128 1:0 2:0 3:0 
128 1:2.8506462 2:2.9420081 3:3.0157788 
128 1:2.7520484 2:2.8155777 3:2.8704039 
-128 1:2.4232459 2:2.8142476 3:3.06032 
-128 1:3.4061994 2:3.4763968 3:3.5322446 
128 1:2.7084209 2:2.7916906 3:2.8488047 
-128 1:3.3848908 2:3.5056925 3:3.570893 
-128 1:2.763428 2:2.8055009 3:2.8475727 
128 1:0 2:0 3:0 
128 1:3.3477202 2:3.771367 3:3.9727118 
-128 1:2.045323 2:2.580925 3:2.9380191 
-128 1:0 2:2.0128372 3:2.3802112 
128 1:2.3802112 2:2.4969296 3:2.5575072 
128 1:2.5854607 2:3.0390173 3:3.2869054 
-128 1:2.5563025 2:2.6354837 3:2.6848454 
-128 1:2.8337844 2:2.9079485 3:2.9623693 
-128 1:2.553883 2:2.820858 3:2.9360108 
128 1:2.0128372 2:2.4409091 3:2.5599066 
128 1:2.7846173 2:2.9576073 3:3.0777312 
128 1:2.5611014 2:2.64836 3:2.6963564 
-128 1:0 2:0 3:0 
-128 1:2.9921115 2:3.0056094 3:3.0119931 
128 1:2.3944517 2:2.7737864 3:3.006466 
-128 1:2.1172713 2:2.4927604 3:2.7250945 
128 1:1.7242759 2:2.5171959 3:2.6866363 
128 1:0.60205999 2:1.7923917 3:2.5502284 
-128 1:2.3242825 2:2.8536982 3:3.0979511 
128 1:0.95424251 2:1.8633229 3:2.0086002 
-128 1:2.365488 2:2.5763414 3:2.6304279 
-128 1:2.045323 2:2.2121876 3:2.2718416 
-128 1:3.2271151 2:3.2792105 3:3.326131 
128 1:3.1972806 2:3.4107772 3:3.5203525 
-128 1:1.2304489 2:1.6901961 3:1.8573325 
-128 1:2.6138418 2:2.6711728 3:2.705008 
-3.081041024732452 1:2.1846914 2:3.333044 3:3.9306434 
128 1:2.3404441 2:2.3944517 3:2.4265113 
-128 1:2.3222193 2:2.4533183 3:2.4913617 
128 1:0 2:0 3:2.9571282 
-128 1:3.3592662 2:3.3740147 3:3.3856063 
128 1:1.6127839 2:1.7242759 3:1.8573325 
-128 1:3.0224284 2:3.1844075 3:3.2732328 
-128 1:2.7512791 2:2.7881684 3:2.8175654 
128 1:3.5366847 2:3.6776982 3:3.7948365 
128 1:2.045323 2:2.7143298 3:3.0207755 
-128 1:1.2552725 2:1.4313638 3:1.4913617 
-128 1:2.376577 2:2.4031205 3:2.4216039 
-128 1:1.462398 2:1.462398 3:1.4913617 
128 1:3.5751878 2:3.6898414 3:3.7594412 
128 1:3.2024883 2:3.359456 3:3.4613484 
128 1:0 2:2.1238516 3:3.1752218 
-128 1:3.3873898 2:3.5606239 3:3.6415733 
128 1:1.748188 2:1.7853298 3:1.845098 
-128 1:0 2:0 3:2.2148438 
-128 1:2.0211893 2:2.6364879 3:2.8014037 
123.1875028959529 1:2.5390761 2:3.3895205 3:3.6416724 
128 1:3.5193028 2:3.6128898 3:3.6780629 
-128 1:0.47712125 2:2.0334238 3:2.2455127 
-128 1:2.1003705 2:2.3710679 3:2.4941546 
-128 1:1.544068 2:1.5797836 3:1.6627578 
-128 1:3.0989896 2:3.1711412 3:3.2193225 
128 1:1.6901961 2:1.7242759 3:1.7403627 
-128 1:3.6885088 2:3.7535065 3:3.82007 
128 1:0 2:2.1139434 3:2.5998831 
128 1:0 2:3.0038912 3:3.3087778 
128 1:2.3344538 2:2.5921768 3:2.7363965 
-128 1:2.6031444 2:2.6683859 3:2.7234557 
-128 1:2.9513375 2:3.0845763 3:3.1752218 
-128 1:0 2:0 3:2.30103 
-128 1:0.47712125 2:1.0791812 3:1.2552725 
128 1:3.3710679 2:3.4980347 3:3.591621 
-128 1:0 2:2.2174839 3:2.8808136 
128 1:3.1024337 2:3.193959 3:3.243038 
128 1:2.952308 2:3.2307043 3:3.3602146 
128 1:2.392697 2:2.7435098 3:2.9872192 
-128 1:2.0569049 2:2.0863598 3:2.1238516 
128 1:2.7084209 2:2.8188854 3:2.8932068 
-128 1:0 2:0 3:0 
128 1:2.7566361 2:2.811575 3:2.8579353 
128 1:0 2:0 3:0 
-128 1:0 2:1.7923917 3:2.5599066 
128 1:2.4727564 2:2.4983106 3:2.5185139 
128 1:2.6063814 2:2.9731279 3:3.1824147 
-128 1:3.0370279 2:3.0382226 3:3.0382226 
-128 1:2.3344538 2:2.6901961 3:2.8401061 
128 1:2.7566361 2:2.8247765 3:2.8639174 
128 1:2.5024271 2:2.5786392 3:2.6273659 
-128 1:2.0569049 2:2.1271048 3:2.1673173 
128 1:2.0128372 2:2.064458 3:2.1335389 
128 1:2.748188 2:2.8512583 3:2.9079485 
-128 1:1.6434527 2:2.920645 3:3.1498347 
-128 1:2.0374265 2:2.6821451 3:2.9647309 
128 1:3.09691 2:3.1149444 3:3.1258065 
-128 1:2.6304279 2:2.6998377 3:2.7315888 
-128 1:0 2:0 3:0 
-128 1:2.7730547 2:2.8382192 3:2.8876173 
-128 1:2.4132998 2:2.4132998 3:2.4132998 
128 1:0 2:0 3:0 
-128 1:3.2909246 2:3.5028366 3:3.6122539 
-128 1:0.47712125 2:0.90308999 3:1.20412 
-128 1:3.5133508 2:3.5346606 3:3.5492486 
-128 1:0 2:1.748188 3:2.0334238 
-128 1:2.1003705 2:2.2253093 3:2.3242825 
128 1:2.4857214 2:2.9907827 3:3.2113876 
-128 1:3.1392492 2:3.176959 3:3.2084414 
128 1:3.3003781 2:3.3558345 3:3.4129643 
128 1:3.1376705 2:3.2068259 3:3.2491984 
-128 1:2.7641761 2:2.806858 3:2.8419848 
128 1:1.1139434 2:1.2552725 3:1.4149733 
-128 1:2.4502491 2:2.50515 3:2.5403295 
128 1:2.3873898 2:2.519828 3:2.580925 
128 1:2.7737864 2:3.0923697 3:3.2370408 
-128 1:1.9294189 2:2 3:2.0569049 
-128 1:0 2:0 3:0 
-128 1:0.77815125 2:0.77815125 3:0.77815125 
-128 1:0.47712125 2:2.20412 3:2.5465427 
128 1:0 2:0 3:0 
-128 1:3.2324879 2:3.3300077 3:3.3836359 
128 1:2.5728716 2:2.6344773 3:2.6757783 
-128 1:3.1420765 2:3.2574386 3:3.3432116 
-128 1:2.9122221 2:2.9449759 3:2.9740509 
-128 1:2.2304489 2:2.6009729 3:2.7888751 
128 1:2.7032914 2:2.7611758 3:2.8014037 
-128 1:0.77815125 2:1.6901961 3:2.4578819 
-128 1:0 2:0.90308999 3:2.8915375 
-128 1:2.2304489 2:2.3117539 3:2.3263359 
128 1:2.1702617 2:2.2741578 3:2.3117539 
-128 1:2.3961993 2:2.4842998 3:2.5276299 
128 1:0.60205999 2:0.60205999 3:0.60205999 
128 1:2.7551123 2:2.8426092 3:2.9090209 
-128 1:3.6978394 2:3.7254216 3:3.7405995 
-128 1:2.839478 2:3.0831441 3:3.2591158 
128 1:3.20871 2:3.2997252 3:3.3679147 
-128 1:1.50515 2:1.5910646 3:1.6334685 
-128 1:3.5659658 2:3.6407795 3:3.6879746 
128 1:0 2:1.8750613 3:2.3579348 
128 1:1.6812412 2:2.0253059 3:2.2121876 
128 1:2.365488 2:2.6803355 3:2.8518696 
-128 1:0 2:0 3:0 
-128 1:3.220631 2:3.6366884 3:3.790637 
128 1:0.30103 2:0.47712125 3:2.5092025 
-128 1:2.4983106 2:2.5378191 3:2.5728716 
-128 1:2.3031961 2:2.350248 3:2.3802112 
-128 1:1.7923917 2:2.930949 3:3.4409091 
-128 1:1.6127839 2:2.580925 3:3.0958665 
-128 1:1.8260748 2:2.5658478 3:2.7881684 
-128 1:1.9444827 2:2.9768083 3:3.2211533 
128 1:2.0791812 2:2.4265113 3:2.5831988 
128 1:0 2:0 3:2.2278867 
128 1:2.2227165 2:2.2380461 3:2.2600714 
128 1:2.6821451 2:2.7767012 3:2.8228216 
128 1:1.1139434 2:1.447158 3:2.146128 
128 1:3.2655253 2:3.3967223 3:3.4787108 
-128 1:2.2624511 2:2.3283796 3:2.3673559 
-128 1:2.4183013 2:2.4969296 3:2.5563025 
-128 1:2.0681859 2:3.0090257 3:3.2447718 
-128 1:2.7355989 2:2.8407332 3:2.905256 
-128 1:0 2:0 3:0 
-10.40166556981137 1:0 2:3.2581582 3:3.5624118 
128 1:0.69897 2:1.6627578 3:1.9395193 
-62.33180358675063 1:0.47712125 2:0.47712125 3:0.47712125 
128 1:2.1789769 2:2.4712917 3:2.6384893 
-128 1:2.0413927 2:2.2174839 3:2.350248 
-128 1:3.2907022 2:3.4279727 3:3.5233562 
-128 1:2.1367206 2:2.3344538 3:2.3483049 
-128 1:0 2:0 3:0 
128 1:0 2:1.9542425 3:2.462398 
128 1:2.5092025 2:2.7867514 3:2.7993405 
-128 1:1.845098 2:1.8512583 3:1.8512583 
128 1:0.69897 2:0.84509804 3:0.90308999 
-128 1:2.7810369 2:2.8948697 3:2.9390198 
-128 1:3.702689 2:3.7875313 3:3.8261396 
-128 1:1.6334685 2:1.9344985 3:2.0569049 
128 1:1.4771213 2:1.5910646 3:1.6627578 
-128 1:0 2:0 3:0 
128 1:3.2276296 2:3.4580332 3:3.5750723 
128 1:2.5634811 2:2.6848454 3:2.763428 
128 1:1.9444827 2:2.4361626 3:2.6334685 
-128 1:0.60205999 2:0.60205999 3:1.9190781 
-128 1:0 2:0 3:0 
-128 1:3.6804262 2:3.7934411 3:3.8569101 
128 1:3.3328423 2:3.3896975 3:3.4176377 
128 1:2.3579348 2:2.5658478 3:2.7067178 
-128 1:3.2362853 2:3.3092042 3:3.3459615 
128 1:2.4913617 2:2.7209857 3:2.7874605 
-128 1:1.2304489 2:1.6334685 3:1.8573325 
128 1:0 2:2.3117539 3:2.9003671 
128 1:0.47712125 2:0.60205999 3:1.7075702 
128 1:2.2787536 2:2.748188 3:2.9489018 
128 1:3.091667 2:3.2671717 3:3.3662361 
-128 1:2.69897 2:3.1513699 3:3.3564083 
-128 1:3.4085791 2:3.6064889 3:3.6870828 
-128 1:2.60206 2:2.6095944 3:2.6127839 
-128 1:2.988559 2:3.0409977 3:3.0762763 
-128 1:2.376577 2:2.4248816 3:2.4785665 
-128 1:3.1486027 2:3.210586 3:3.2447718 
-128 1:2.9299296 2:2.9925535 3:3.0228406 
128 1:0 2:0 3:0 
-128 1:2.8920946 2:2.967548 3:2.9912261 
-128 1:0 2:1.146128 3:2.6253125 
128 1:2.2174839 2:2.3324385 3:2.4199557 
128 1:3.0157788 2:3.1550322 3:3.2135178 
-119.6918038518828 1:3.3430145 2:3.4292677 3:3.4888326 
128 1:2.0211893 2:2.2900346 3:2.3692159 
128 1:3.0784568 2:3.3500541 3:3.4692327 
128 1:0 2:0 3:0 
128 1:3.4212748 2:3.5548524 3:3.6589648 
-128 1:2.0827854 2:2.7032914 3:2.9703469 
-128 1:2.30103 2:2.50515 3:2.60206 
128 1:3.1652443 2:3.2593549 3:3.3398488 
-128 1:3.2946866 2:3.5613399 3:3.6637009 
128 1:1.6334685 2:1.6434527 3:1.6627578 
-128 1:2.7664128 2:2.8155777 3:2.845718 
-128 1:2.7075702 2:2.7972675 3:2.8318698 
-128 1:3.3778524 2:3.4768316 3:3.5399538 
-85.31593198470806 1:0 2:0 3:3.510679 
-128 1:1.845098 2:2.5502284 3:3.0220157 
128 1:0.84509804 2:2.2455127 3:2.6414741 
-128 1:3.4369573 2:3.537945 3:3.5974758 
128 1:2.8382192 2:2.9956352 3:3.1102529 
128 1:3.5217916 2:3.9199667 3:4.0348289 
46.71784482153383 1:0 2:1.3802112 3:2.9420081 
128 1:0.47712125 2:0.47712125 3:0.60205999 
-128 1:2.8407332 2:3.1580608 3:3.2846563 
128 1:1.4149733 2:2.7881684 3:2.8182259 
-128 1:0 2:0 3:3.1411361 
128 1:3.2547897 2:3.2962263 3:3.3220124 
-128 1:2.1731863 2:2.3856063 3:2.5740313 
-128 1:1.146128 2:1.80618 3:2.0253059 
-128 1:1.80618 2:2.2278867 3:2.6414741 
128 1:1.0413927 2:2.2648178 3:2.5820634 
128 1:1.6127839 2:2.5965971 3:2.9047155 
-128 1:3.3366598 2:3.4730488 3:3.5455545 
-128 1:2.9863238 2:3.0845763 3:3.1580608 
-128 1:2.7965743 2:2.876795 3:2.9395193 
128 1:2.8228216 2:2.9469433 3:3.0293838 
-128 1:1.9590414 2:2.0293838 3:2.0606978 
-128 1:2.4941546 2:2.888741 3:3.0370279 
128 1:2.0043214 2:2.049218 3:2.075547 
128 1:2.307496 2:2.6928469 3:2.9090209 
-128 1:2.6138418 2:2.7291648 3:2.8247765 
-128 1:2.1522883 2:2.897077 3:3.1373541 
128 1:2.5899496 2:3.0017337 3:3.1338581 
128 1:3.4835873 2:3.5089335 3:3.5375673 
-128 1:3.1179338 2:3.2198464 3:3.3034121 
128 1:0 2:1.39794 3:2.3783979 
-128 1:2.8280151 2:2.8674675 3:2.8959747 
128 1:2.1038037 2:2.3263359 3:2.7839036 
128 1:1.5682017 2:2.3324385 3:2.5301997 
-128 1:0 2:0 3:0 
-128 1:1.8129134 2:2.0128372 3:2.0681859 
-128 1:3.0068937 2:3.1646502 3:3.2598327 
128 1:2.9395193 2:2.952308 3:2.9590414 
-128 1:1.8864907 2:1.9777236 3:2.064458 
-128 1:2.1430148 2:2.1958997 3:2.2278867 
-128 1:1.9777236 2:2.2988531 3:2.4712917 
-128 1:3.0090257 2:3.058426 3:3.0962146 
-128 1:2.6095944 2:2.7916906 3:2.9273704 
-128 1:1.8750613 2:2.580925 3:2.7895807 
128 1:3.0119931 2:3.1254813 3:3.1903317 
-128 1:0 2:0.60205999 3:2.1271048 
-128 1:3.1565492 2:3.2704459 3:3.3168088 
-76.33849736909146 1:2.5899496 2:2.8388491 3:2.9831751 
128 1:3.3218055 2:3.393926 3:3.4452928 
128 1:2.4065402 2:2.687529 3:2.8162413 
-128 1:2.4440448 2:2.8639174 3:3.0480532 
-128 1:2.5145478 2:3.1964525 3:3.4884097 
128 1:0 2:0 3:0.69897 
128 1:1.8750613 2:1.9190781 3:1.9444827 
128 1:2 2:2.2479733 3:2.4955443 
128 1:0.84509804 2:2.5340261 3:3.1643529 
-128 1:3.7136585 2:3.7268087 3:3.7276226 
-99.97283590809006 1:2.705008 2:2.7512791 3:2.7916906 
128 1:0 2:0 3:0 
128 1:2.0681859 2:2.1398791 3:2.1958997 
-128 1:2.5453071 2:2.7395723 3:2.9003671 
-128 1:2.0253059 2:2.0606978 3:2.0934217 
-128 1:2.161368 2:2.2227165 3:2.2900346 
-128 1:3.4933186 2:3.5471591 3:3.5969268 
-128 1:2.1789769 2:2.5575072 3:2.6493349 
-128 1:3.4106085 2:3.4527062 3:3.4778445 
-128 1:3.2240148 2:3.2491984 3:3.286681 
128 1:0.30103 2:2.1846914 3:3.198107 
-128 1:2.8686444 2:2.9380191 3:2.9595184 
128 1:1.845098 2:2.651278 3:3.0244857 
105.1217159098127 1:2.3873898 2:2.4166405 3:2.4393327 
128 1:2.2922561 2:2.5693739 3:2.7993405 
-128 1:3.0056094 2:3.0136797 3:3.0211893 
128 1:2.6839471 2:2.7331973 3:2.7656686 
128 1:0 2:0 3:1.3222193 
-128 1:2.9439889 2:2.9822712 3:3.0034605 
128 1:0 2:0 3:0 
128 1:3.2030329 2:3.3236645 3:3.3993275 
-128 1:2 2:2.372912 3:2.5563025 
128 1:3.1254813 2:3.4353665 3:3.5711263 
128 1:1.90309 2:2.8055009 3:3.1258065 
-128 1:2.6866363 2:3.370328 3:3.7541189 
-128 1:3.3928727 2:3.5751878 3:3.6485552 
128 1:3.5281451 2:3.5454308 3:3.564074 
-51.80940919552994 1:0.95424251 2:2.9100905 3:3.1878026 
-128 1:3.177825 2:3.3967223 3:3.553033 
128 1:2.7259116 2:2.8088859 3:2.881955 
128 1:2.4742163 2:2.811575 3:3.0107239 
128 1:2.2253093 2:2.3424227 3:2.4116197 
128 1:3.4385423 2:3.4965145 3:3.536937 
128 1:3.1728947 2:3.4263486 3:3.5074511 
128 1:0 2:0 3:1.5185139 
128 1:3.149527 2:3.2362853 3:3.3001605 
-128 1:3.0086002 2:3.0788192 3:3.0788192 
128 1:3.2971037 2:3.4321673 3:3.5212689 
-128 1:2.3521825 2:2.4329693 3:2.4871384 
128 1:2.4166405 2:2.4199557 3:2.4265113 
128 1:2.3909351 2:2.4771213 3:2.5352941 
128 1:2.7895807 2:2.8122447 3:2.854913 
-128 1:2.5118834 2:2.5490033 3:2.5843312 
128 1:3.237795 2:3.2499318 3:3.2615008 
-128 1:3.0174507 2:3.0553783 3:3.0817073 
-128 1:2.8254261 2:3.091667 3:3.1908917 
128 1:1.0791812 2:1.4313638 3:1.5314789 
128 1:0 2:0 3:0 
128 1:2.8948697 2:3.1746412 3:3.3342526 
128 1:2.1846914 2:2.1931246 3:2.20412 
-128 1:2.252853 2:2.3222193 3:2.3783979 
128 1:3.4689378 2:3.5734518 3:3.6519561 
-128 1:0 2:1.7242759 3:2.6159501 
128 1:3.1112625 2:3.2299377 3:3.3136563 
128 1:0 2:2.3443923 3:2.69897 
128 1:0 2:1.447158 3:1.763428 
-128 1:0 2:0 3:0 
-128 1:1.8512583 2:1.8633229 3:1.8633229 
128 1:3.0277572 2:3.071882 3:3.0986437 
128 1:3.666518 2:3.7737133 3:3.8773137 
-128 1:2.7218106 2:2.8356906 3:2.8948697 
128 1:0 2:0 3:0 
-128 1:2.7331973 2:2.8162413 3:2.8881795 
128 1:1.8573325 2:2.8195439 3:3.0799045 
128 1:0.90308999 2:1.146128 3:2.346353 
-128 1:3.0211893 2:3.2395497 3:3.3577443 
128 1:2.7489629 2:2.7788745 3:2.80618 
128 1:2.8155777 2:2.8579353 3:2.8785218 
128 1:3.176959 2:3.2643455 3:3.311542 
-128 1:0 2:0 3:0 
-128 1:1.4149733 2:1.8260748 3:2.161368 
-128 1:0 2:0.60205999 3:1.146128 
-128 1:3.1038037 2:3.1228709 3:3.1376705 
-128 1:0.69897 2:2.2787536 3:2.6384893 
128 1:2.763428 2:2.8228216 3:2.8627275 
-128 1:3.5825179 2:3.6368889 3:3.6634182 
128 1:2.1643529 2:2.7512791 3:3.168792 
-128 1:0 2:3.189771 3:3.5189086 
-128 1:2.045323 2:2.6702459 3:2.9339932 
128 1:0 2:0 3:0 
-128 1:3.3639878 2:3.4364807 3:3.6349808 
128 1:2.3856063 2:2.4668676 3:2.5237465 
-128 1:2.4297523 2:2.5024271 3:2.5797836 
-128 1:3.06032 2:3.1844075 3:3.2600714 
-128 1:3.8788663 2:3.8850784 3:3.8930401 
128 1:2.3856063 2:3.0507663 3:3.3424227 
-128 1:3.3852487 2:3.4724639 3:3.5200903 
128 1:3.0136797 2:3.1577589 3:3.2450189 
-128 1:2.8909796 2:2.9863238 3:3.0382226 
-128 1:2.8645111 2:2.9513375 3:2.9978231 
-128 1:3.8194123 2:3.9081095 3:3.9875322 
128 1:2.064458 2:2.1238516 3:2.1731863 
128 1:0 2:0 3:0 
128 1:2.667453 2:2.7032914 3:2.7209857 
128 1:2.6394865 2:2.8518696 3:2.9876663 
-128 1:2.9818186 2:3.34262 3:3.5346606 
-128 1:0 2:0 3:2.1139434 
-128 1:2.8853612 2:2.9867717 3:3.062582 
-128 1:2.2833012 2:2.7874605 3:2.9731279 
-128 1:0 2:0 3:0 
128 1:1.7993405 2:2.0791812 3:2.2068259 
128 1:3.112605 2:3.2284004 3:3.3031961 
-128 1:1.7558749 2:1.845098 3:1.9138139 
-128 1:3.071882 2:3.1436392 3:3.2129862 
-128 1:3.0017337 2:3.0729847 3:3.0891984 
128 1:3.6679197 2:3.7723217 3:3.836514 
128 1:1.69897 2:1.7558749 3:1.7923917 
-128 1:2.3579348 2:2.6560982 3:2.8750613 
128 1:2.7267272 2:2.8750613 3:2.923762 
128 1:3.168792 2:3.1880844 3:3.2052044 
-128 1:2.8573325 2:3.1717265 3:3.3346548 
-128 1:0 2:0 3:2.876795 
-128 1:3.3384565 2:3.3963737 3:3.4159744 
128 1:3.8597386 2:3.8704039 3:3.8797838 
-128 1:2.820858 2:3.0216027 3:3.148911 
128 1:2.8215135 2:2.8331471 3:2.8475727 
-128 1:3.6019514 2:3.6728365 3:3.7449185 
111.2675841318803 1:3.8606374 2:3.8854743 3:3.8982863 
128 1:3.0499929 2:3.0700379 3:3.0820669 
128 1:0 2:0.60205999 3:1.0413927 
128 1:1.3222193 2:1.6434527 3:1.7558749 
128 1:1.8195439 2:2.0899051 3:2.1903317 
128 1:3.065953 2:3.3716219 3:3.5229656 
-128 1:3.4534712 2:3.4983106 3:3.510545 
-128 1:0 2:0 3:0 
128 1:2.4742163 2:2.506505 3:2.5352941 
128 1:2.8344207 2:3.1894903 3:3.3868555 
-128 1:1.2552725 2:1.6232493 3:1.7781513 
128 1:2.8280151 2:2.9444827 3:3.0017337 
128 1:0.90308999 2:2.7923917 3:3.154424 
-128 1:1.3222193 2:2.1492191 3:2.5682017 
-128 1:0.30103 2:1.845098 3:2.5010593 
-128 1:2.049218 2:2.1789769 3:2.2304489 
-128 1:2.7874605 2:3.0899051 3:3.281715 
-128 1:3.0261245 2:3.225826 3:3.4479329 
-128 1:0 2:0 3:0 
128 1:1.763428 2:2.807535 3:3.09691 
-128 1:2.6884198 2:2.7331973 3:2.7730547 
81.49112635584534 1:3.5494937 2:3.586137 3:3.6616234 
128 1:2.8518696 2:3.0310043 3:3.1631614 
-128 1:0 2:0 3:0 
128 1:3.4824448 2:3.5166676 3:3.6049816 
-128 1:2.8506462 2:3.1000257 3:3.2688119 
-128 1:0.47712125 2:0.69897 3:2.4265113 
-128 1:2.7458552 2:2.7965743 3:2.8350561 
128 1:2.39794 2:2.7874605 3:2.9881128 
-128 1:0 2:2.2671717 3:2.7363965 
-128 1:1 2:1.1760913 3:1.2787536 
-128 1:2.3617278 2:2.64836 3:2.8055009 
82.5265944556302 1:2.7347998 2:3.0413927 3:3.2301934 
128 1:1.20412 2:2.2013971 3:2.4149733 
128 1:0 2:1.7923917 3:2.2966652 
128 1:1.9344985 2:2.1003705 3:2.1818436 
-128 1:2.8633229 2:3.095518 3:3.2260841 
128 1:2.9294189 2:3.0068937 3:3.0565237 
128 1:2.8762178 2:2.9542425 3:3.0253059 
-128 1:0 2:0 3:2.469822 
-128 1:3.311542 2:3.4196254 3:3.4974825 
128 1:1.9731279 2:2.2718416 3:2.4548449 
128 1:2.3891661 2:3.3905819 3:3.6274683 
128 1:0 2:0 3:0 
-128 1:3.1702617 2:3.3714373 3:3.4999619 
128 1:1.9912261 2:2.0128372 3:2.0128372 
128 1:0 2:2.3222193 3:2.8555192 
-128 1:0 2:0 3:0 
-128 1:3.9833105 2:4.0671081 3:4.1132078 
-128 1:2.9951963 2:3.2445245 3:3.5210073 
-128 1:0 2:2.9454686 3:3.4456042 
128 1:2.243038 2:2.5132176 3:2.6031444 
128 1:1.7242759 2:2.1430148 3:2.2900346 
-2.649979194255047 1:1.0413927 2:1.462398 3:1.6532125 
128 1:2.1643529 2:2.2900346 3:2.3283796 
128 1:3.0314085 2:3.1264561 3:3.1972806 
128 1:2.580925 2:2.7551123 3:2.8481891 
128 1:2.9854265 2:3.0877814 3:3.1798389 
128 1:3.5595476 2:3.6464037 3:3.7227984 
128 1:2.3891661 2:2.4487063 3:2.4814426 
128 1:2.70927 2:2.8715729 3:2.9552065 
128 1:0.30103 2:0.47712125 3:0.47712125 
-128 1:1.8195439 2:2.1760913 3:2.2922561 
-128 1:1.770852 2:2.5158738 3:2.7930916 
128 1:3.674126 2:3.7508939 3:3.8051609 
128 1:2.4927604 2:2.5502284 3:2.5998831 
128 1:2.5490033 2:2.8750613 3:3.0799045 
128 1:2.1846914 2:2.2479733 3:2.2966652 
128 1:2.8000294 2:2.8762178 3:2.948413 
128 1:0.69897 2:2.4297523 3:2.7218106 
-128 1:0 2:0 3:0 
128 1:1.6434527 2:1.7160033 3:1.7993405 
128 1:3.4540823 2:3.5773769 3:3.7109631 
128 1:2.4116197 2:2.447158 3:2.4756712 
-128 1:2.0170333 2:2.3344538 3:2.5224442 
-128 1:3.080987 2:3.0906107 3:3.1000257 
128 1:3.1975562 2:3.23325 3:3.2659964 
-128 1:0 2:0 3:0 
-128 1:0 2:0 3:0 
128 1:0.90308999 2:1 3:1.0791812 
128 1:3.1975562 2:3.3016809 3:3.3632358 
-128 1:1.50515 2:1.60206 3:1.6720979 
128 1:2.9380191 2:3.0413927 3:3.1055102 
128 1:2.890421 2:2.9268567 3:2.9637878 
128 1:2.7168377 2:2.9907827 3:3.1571544 
128 1:2.4742163 2:2.5024271 3:2.5378191 
-128 1:3.3567905 2:3.4061994 3:3.4361626 
128 1:0 2:0 3:0 
-128 1:3.1319393 2:3.1492191 3:3.1619666 
128 1:3.1370375 2:3.1900514 3:3.2161659 
128 1:1.7242759 2:1.748188 3:1.748188 
-128 1:2.5888317 2:3.1357685 3:3.2924776 
128 1:0 2:0 3:0 
-15.71157173647637 1:3.5541256 2:3.647383 3:3.7025167 
-128 1:2.3031961 2:2.3891661 3:2.4345689 
128 1:0.69897 2:0.84509804 3:1 
-128 1:2.6981005 2:2.7558749 3:2.8000294 
-128 1:0 2:0 3:0 
-128 1:2.2787536 2:2.3324385 3:2.3617278 
-128 1:3.1367206 2:3.2447718 3:3.3117539 
128 1:2.7611758 2:2.8932068 3:2.9818186 
-128 1:3.3023309 2:3.4072209 3:3.4756712 
-128 1:0.95424251 2:1.0413927 3:1.1760913 
-128 1:2.4785665 2:3.0390173 3:3.2435341 
-128 1:0 2:2.3710679 3:2.8954225 
128 1:0.60205999 2:0.60205999 3:1.6812412 
-128 1:2.2718416 2:2.6009729 3:2.7656686 
-128 1:1.1760913 2:1.5797836 3:1.770852 
-128 1:3.0305997 2:3.0346285 3:3.0390173 
-128 1:2.4199557 2:2.4517864 3:2.4785665 
128 1:2.3344538 2:2.3560259 3:2.3747483 
-128 1:2.6493349 2:2.7259116 3:2.8014037 
128 1:3.2871296 2:3.4265113 3:3.5298152 
-128 1:3.0338257 2:3.1601683 3:3.2365373 
128 1:1.5682017 2:2.1303338 3:2.1958997 
128 1:1.763428 2:2.5658478 3:2.7558749 
128 1:2.7497363 2:3.0437551 3:3.2084414 
128 1:3.3508293 2:3.4431065 3:3.4969296 
128 1:0 2:0 3:0 
128 1:0 2:0 3:1.0413927 
128 1:1.2552725 2:1.6627578 3:1.8692317 
-128 1:0 2:0 3:0 
128 1:2.3692159 2:2.5670264 3:2.7058637 
-128 1:0 2:0 3:0.30103 
128 1:0 2:0 3:2.6785184 
128 1:1.69897 2:2.3180633 3:2.6454223 
128 1:2.09691 2:2.3747483 3:2.5751878 
-128 1:2.9216865 2:3.2543063 3:3.4112829 
-128 1:2.5587086 2:2.5587086 3:2.5599066 
-128 1:3.8688207 2:3.9543873 3:4.0080037 
128 1:2.1271048 2:2.1643529 3:2.1931246 
-128 1:3.1433271 2:3.2329961 3:3.2496874 
-128 1:1 2:1.0791812 3:1.3222193 
-128 1:1.9242793 2:2.50515 3:2.705008 
128 1:2.5301997 2:2.7916906 3:2.9585639 
-128 1:1.1139434 2:2.607455 3:2.845098 
-128 1:2.8954225 2:3.112605 3:3.2513949 
128 1:2.748188 2:2.7596678 3:2.7626786 
128 1:0 2:0 3:0 
43.95745174313923 1:0 2:1.3617278 3:1.7323938 
128 1:0 2:0 3:0 
128 1:1.748188 2:2.3384565 3:2.5037907 
128 1:2.0253059 2:2.4048337 3:2.5740313 
128 1:0 2:0.47712125 3:0.60205999 
-128 1:2.930949 2:3.0068937 3:3.0802656 
-128 1:0 2:0 3:1.8260748 
-128 1:0 2:0.60205999 3:1.6232493 
-128 1:3.1906118 2:3.228657 3:3.2521246 
128 1:0 2:0 3:0 
128 1:0 2:0 3:0 
128 1:2.5024271 2:2.7395723 3:2.8836614 
128 1:0.47712125 2:1.3222193 3:2.6344773 
25.83250874248328 1:4.1932638 2:4.3415334 3:4.4880004 
128 1:0 2:1.3802112 3:2.09691 
-128 1:3.4211101 2:3.4211101 3:3.4211101 
-128 1:0.30103 2:0.47712125 3:0.47712125 
-128 1:0 2:0 3:0 
-128 1:2.974972 2:3.1737688 3:3.2853322 
128 1:0.84509804 2:2.307496 3:2.8254261 
128 1:2.365488 2:2.3710679 3:2.3802112 
128 1:2.79588 2:2.8668778 3:2.9175055 
128 1:3.2412974 2:3.3560259 3:3.4427932 
128 1:3.1821292 2:3.25042 3:3.3049212 
-128 1:3.8985058 2:3.9098768 3:3.9183973 
128 1:2.4313638 2:2.7505084 3:2.9111576 
128 1:2.4742163 2:2.5563025 3:2.580925 
-128 1:2.8188854 2:2.8692317 3:2.905256 
-128 1:2.0374265 2:2.6766936 3:2.9370161 
128 1:1.6720979 2:2.9405165 3:3.2289134 
-128 1:2.4668676 2:2.5092025 3:2.5263393 
-128 1:1.4313638 2:1.4313638 3:1.447158 
128 1:0 2:1.146128 3:2.9822712 
128 1:2.049218 2:2.0934217 3:2.1172713 
-128 1:2.6794279 2:2.7979596 3:2.952308 
128 1:2.2966652 2:2.3909351 3:2.447158 
128 1:0.95424251 2:1.90309 3:2.1238516 
128 1:2.7810369 2:2.9370161 3:3.0257154 
128 1:0 2:0.30103 3:2.7427251 
-128 1:1.3424227 2:1.7781513 3:2.0170333 
128 1:0 2:2.8234742 3:3.2545481 
128 1:2.7596678 2:2.8202015 3:2.8530895 
-128 1:0.90308999 2:2.6570559 3:3.1717265 
-128 1:3.0788192 2:3.1522883 3:3.2022158 
-128 1:1.6627578 2:1.6812412 3:1.7242759 
-128 1:0 2:0 3:0 
-128 1:3.8332109 2:3.8500333 3:3.8619524 
-128 1:2.2787536 2:2.4899585 3:2.587711 
128 1:2.3521825 2:2.4548449 3:2.55145 
-128 1:0.30103 2:0.77815125 3:1.8129134 
-128 1:1.1139434 2:1.544068 3:1.7323938 
-128 1:3.3144992 2:3.6259295 3:3.7983744 
128 1:2.8585372 2:2.9159272 3:2.94939 
-128 1:0 2:2.4313638 3:2.7589119 
-128 1:0 2:0.90308999 3:2.4857214 
-128 1:0 2:1 3:2.469822 
-128 1:0 2:2.0934217 3:2.7589119 
-128 1:1.3222193 2:1.4313638 3:1.4913617 
-128 1:1.60206 2:1.6127839 3:1.6627578 
128 1:3.5704262 2:3.6594408 3:3.6937269 
-128 1:1.9590414 2:2.3242825 3:2.4996871 
-128 1:3.0346285 2:3.1159432 3:3.1513699 
-128 1:0 2:0 3:0 
128 1:0 2:0 3:0 
128 1:3.5892792 2:3.6771505 3:3.7379079 
128 1:1.3802112 2:1.90309 3:1.9242793 
128 1:2.0128372 2:2.5037907 3:2.5899496 
128 1:1.30103 2:2.1038037 3:2.3324385 
128 1:0 2:0 3:0 
-128 1:2.8234742 2:2.9143432 3:3.0030295 
128 1:3.3283796 2:3.4886917 3:3.6054128 
-128 1:2.6009729 2:2.6031444 3:2.6190933 
128 1:2.8727388 2:2.9836263 3:3.049218 
-128 1:2.4913617 2:2.6522463 3:2.7355989 
-128 1:1.20412 2:1.3222193 3:1.4313638 
-128 1:2.469822 2:3.0576661 3:3.309843 
-128 1:0.95424251 2:1.2552725 3:1.3424227 
-128 1:3.4602963 2:3.4619485 3:3.463445 
128 1:1.9777236 2:2.1271048 3:2.2121876 
128 1:2.6551384 2:2.9758911 3:3.1427022 
-101.7294604104164 1:3.6357852 2:3.6814222 3:3.6999244 
-128 1:0 2:0 3:2 
128 1:2.1003705 2:2.4232459 3:2.5693739 
15.35939829507625 1:0.60205999 2:3.3348557 3:3.6230424 
-128 1:1.6532125 2:2.2624511 3:2.519828 
-128 1:3.423082 2:3.525822 3:3.5968169 
-128 1:2.1789769 2:2.2329961 3:2.2900346 
128 1:3.3117539 2:3.3651134 3:3.413635 
-128 1:1.9190781 2:2.7450748 3:3.0038912 
-128 1:2.9547248 2:3.1595672 3:3.2447718 
128 1:2.2833012 2:2.365488 3:2.4361626 
128 1:2.2013971 2:2.4393327 3:2.5378191 
128 1:2.3263359 2:2.363612 3:2.3802112 
-128 1:1.8512583 2:1.8573325 3:1.8692317 
128 1:2.6444386 2:2.8813847 3:2.9772662 
128 1:2.5502284 2:2.6304279 3:2.6954817 
128 1:0 2:0.47712125 3:2.447158 
-128 1:0 2:0 3:0 
128 1:2.9344985 2:3.1231981 3:3.34733 
128 1:3.6292057 2:3.7651468 3:3.8390379 
-128 1:2.8122447 2:2.8202015 3:2.8241258 
128 1:3.0989896 2:3.2688119 3:3.3283796 
-128 1:2.5502284 2:2.6981005 3:2.8109043 
128 1:0 2:1.3222193 3:2.1846914 
128 1:2.5171959 2:2.8129134 3:3.0047512 
-128 1:2.1958997 2:2.705008 3:3.0958665 
128 1:2.5587086 2:2.6063814 3:2.6344773 
128 1:3.0413927 2:3.0464952 3:3.0553783 
128 1:2.10721 2:2.1986571 3:2.2355284 
128 1:2.7881684 2:2.8825245 3:2.923762 
-128 1:2.9800034 2:3.0674428 3:3.0937718 
-128 1:2.5477747 2:2.5751878 3:2.5932861 
128 1:0 2:0 3:1.4771213 
128 1:2.6893089 2:2.7267272 3:2.7520484 
-128 1:0.47712125 2:2.4533183 3:2.807535 
128 1:0 2:0 3:1.9190781 
128 1:2.50515 2:2.5740313 3:2.6294096 
128 1:0.84509804 2:2.25042 3:2.5263393 
128 1:2.8825245 2:3.1690864 3:3.3121774 
-128 1:2.1271048 2:2.2988531 3:2.4297523 
-128 1:2.6148972 2:2.9609462 3:3.1392492 
128 1:0 2:0 3:0 
128 1:2.5763414 2:2.664642 3:2.7259116 
128 1:0 2:0 3:0 
128 1:1.9777236 2:2.5276299 3:2.7058637 
128 1:0 2:0 3:2.0681859 
-128 1:2.8426092 2:3.198107 3:3.5349141 
128 1:0 2:0 3:0 
-128 1:2.6946052 2:2.7543483 3:2.8109043 
-128 1:2.0899051 2:2.1522883 3:2.2148438 
-128 1:0 2:0 3:2.2304489 
128 1:2.8419848 2:2.9106244 3:2.9614211 
-128 1:0 2:0 3:0 
128 1:3.314078 2:3.3550682 3:3.3763944 
-128 1:2.7916906 2:2.948413 3:3.0588055 
128 1:0.84509804 2:0.90308999 3:1.1760913 
-40.18278053665306 1:0 2:2.881955 3:3.2873538 
128 1:0 2:0 3:0 
-128 1:2.4099331 2:2.4712917 3:2.4899585 
128 1:2.447158 2:2.5118834 3:2.5428254 
128 1:2.2148438 2:2.6757783 3:2.9014583 
128 1:2.3909351 2:2.7466342 3:2.9459607 
-128 1:0 2:0.30103 3:0.60205999 
128 1:1.8260748 2:1.8864907 3:1.9294189 
-128 1:2.30103 2:2.3560259 3:2.39794 
-128 1:3.377124 2:3.5611014 3:3.6592505 
128 1:2.5145478 2:2.6148972 3:2.6803355 
128 1:2.5490033 2:2.6444386 3:2.7126497 
-128 1:2.9116902 2:3.1728947 3:3.3109056 
-128 1:0 2:0.95424251 3:1.30103 
128 1:1.6720979 2:1.7242759 3:1.770852 
-128 1:2.3909351 2:2.4899585 3:2.5352941 
-128 1:0.30103 2:0.60205999 3:1.1139434 
128 1:3.4787108 2:3.5081255 3:3.5309677 
128 1:3.0374265 2:3.0784568 3:3.1075491 
-128 1:2.5465427 2:2.8318698 3:2.9986952 
-128 1:2.4409091 2:3.1637575 3:3.4488608 
-128 1:2.3873898 2:2.4345689 3:2.4608978 
128 1:1.1760913 2:2.2068259 3:2.3324385 
-128 1:2.5611014 2:3.2161659 3:3.5368109 
-128 1:2.770852 2:3.06032 3:3.2182729 
-128 1:2.0211893 2:2.2624511 3:2.3802112 
128 1:2.3747483 2:2.5024271 3:2.6009729 
128 1:2.5145478 2:2.5587086 3:2.6106602 
-128 1:2.6294096 2:2.7611758 3:2.85248 
-128 1:2.9982593 2:3.0413927 3:3.0820669 
128 1:2.1238516 2:2.4216039 3:2.580925 
-117.7817542868916 1:3.6942541 2:3.7423323 3:3.7740057 
-128 1:1.0791812 2:1.2552725 3:1.3222193 
128 1:4.2521002 2:4.2655489 3:4.2827807 
128 1:2.4593925 2:2.5132176 3:2.55145 
128 1:2.7032914 2:3.1122698 3:3.3195224 
128 1:3.1274288 2:3.2214142 3:3.2857823 
-128 1:2.9831751 2:3.0366289 3:3.0733517 
128 1:0 2:0 3:0 
128 1:0 2:0 3:0 
128 1:2.2304489 2:2.30103 3:2.3364597 
-128 1:0 2:0 3:0 
128 1:3.2581582 2:3.3477202 3:3.4015728 
-128 1:0 2:0 3:0 
-128 1:1.8260748 2:1.94939 3:2.0211893 
-128 1:2.5705429 2:2.5820634 3:2.5921768 
-128 1:0 2:0 3:0 
-128 1:3.0884905 2:3.3535316 3:3.4805818 
128 1:2.0530784 2:2.1398791 3:2.1958997 
-128 1:2.1238516 2:2.1986571 3:2.1986571 
-128 1:0 2:0 3:0 
-128 1:2.8709888 2:3.0366289 3:3.1373541 
128 1:1.9344985 2:2.2479733 3:2.4232459 
-128 1:3.002598 2:3.4560622 3:3.5658478 
-128 1:2.8195439 2:2.8438554 3:2.8715729 
-128 1:0 2:2.3384565 3:2.6009729 
128 1:2.5289167 2:2.8413595 3:3.0030295 
128 1:2.7671559 2:2.8698182 3:2.9390198 
-128 1:2.7363965 2:2.8920946 3:2.9813655 
128 1:2.7411516 2:3.1556396 3:3.3410386 
128 1:1.9242793 2:1.9777236 3:2.0253059 
128 1:2.0569049 2:2.1335389 3:2.1875207 
-128 1:2.80618 2:2.820858 3:2.8369567 
-128 1:2.5987905 2:2.8920946 3:3.0622058 
-128 1:2.4653829 2:2.7226339 3:2.8469553 
128 1:1.4149733 2:1.544068 3:1.5910646 
-128 1:2.0413927 2:2.3891661 3:2.5237465 
-128 1:0 2:2.3384565 3:3.209515 
128 1:1.6127839 2:1.7923917 3:1.90309 
128 1:2.5211381 2:2.5910646 3:2.6394865 
-128 1:2.1522883 2:2.2380461 3:2.3117539 
-128 1:1.6334685 2:1.6434527 3:1.6532125 
-128 1:0 2:2.3541084 3:2.7126497 
128 1:2.3404441 2:2.9273704 3:3.3494718 
128 1:1.748188 2:1.845098 3:1.8750613 
-128 1:1.462398 2:1.9912261 3:2.2810334 
128 1:1.4913617 2:2.854913 3:3.1376705 
128 1:2.2624511 2:2.3483049 3:2.376577 
128 1:0 2:0 3:2.4297523 
128 1:2.4297523 2:2.5888317 3:2.6857417 
128 1:2.4814426 2:2.8976271 3:3.0958665 
-128 1:2.9380191 2:2.9969492 3:3.0314085 
-128 1:1.5314789 2:2.7528164 3:3.091667 
128 1:1.3424227 2:2.5575072 3:2.7824726 
128 1:1.845098 2:2.4683473 3:2.64836 
128 1:2.890421 2:3.0038912 3:3.0751819 
128 1:2.4132998 2:2.6637009 3:2.808211 
128 1:2.9890046 2:3.0666986 3:3.1172713 
128 1:1.9395193 2:3.2253093 3:3.4962375 
128 1:0 2:2.2304489 3:2.69897 
-128 1:2.3521825 2:2.462398 3:2.5415792 
128 1:1.447158 2:1.8750613 3:2.071882 
-128 1:0 2:1.8573325 3:2.1492191 
128 1:0 2:0 3:3.2000293 
128 1:2.0374265 2:2.5132176 3:2.8645111 
-128 1:3.1583625 2:3.2164298 3:3.2437819 
-128 1:3.6283889 2:3.6464037 3:3.6593456 
-128 1:0 2:0 3:0 
128 1:3.6942541 2:3.7435882 3:3.7803173 
-128 1:2.8853612 2:3.1264561 3:3.2641092 
128 1:2.6839471 2:2.7972675 3:2.8567289 
128 1:0 2:0 3:0 
-128 1:0 2:2.3031961 3:2.5786392 
-91.83271247458447 1:0 2:0.30103 3:0.47712125 
-128 1:3.1068705 2:3.1824147 3:3.2342641 
128 1:2.9400182 2:3.0920185 3:3.1997552 
-128 1:0.77815125 2:1.20412 3:1.4149733 
128 1:0 2:1 3:2.1673173 
-128 1:3.4969296 2:3.7417817 3:3.8821829 
-128 1:3.1328998 2:3.2022158 3:3.2437819 
-128 1:2.5820634 2:2.622214 3:2.647383 
128 1:2.8014037 2:2.9652017 3:3.0737184 
128 1:2.9449759 2:2.9867717 3:3.0107239 
128 1:2.2227165 2:2.3031961 3:2.3263359 
-128 1:3.1007151 2:3.2208922 3:3.2940251 
128 1:2.8536982 2:3.1649474 3:3.2641092 
-128 1:2.2174839 2:2.5263393 3:2.6910815 
-128 1:2 2:2.3944517 3:2.5526682 
128 1:3.382017 2:3.4224257 3:3.456973 
-128 1:0 2:1.6812412 3:3.3624825 
128 1:2.6608655 2:3.058426 3:3.2273724 
-128 1:3.8948697 2:3.9910488 3:4.026615 
128 1:0 2:0 3:0 
128 1:0 2:1.5910646 3:1.8512583 
128 1:3.172311 2:3.2046625 3:3.228657 
-128 1:2.0253059 2:2.3053514 3:2.4899585 
128 1:2.3541084 2:2.3541084 3:2.3560259 
-128 1:2.7419391 2:2.757396 3:2.7664128 
-128 1:3.6941663 2:3.7740788 3:3.8189513 
128 1:0 2:2.2121876 3:2.9299296 
128 1:0 2:0 3:2.4608978 
-128 1:2.6253125 2:3.2362853 3:3.4662743 
128 1:2.2922561 2:2.60206 3:2.7250945 
128 1:3.1389339 2:3.2111205 3:3.2595939 
128 1:2.0293838 2:2.3856063 3:2.463893 
128 1:2.0043214 2:2.10721 3:2.155336 
-128 1:1.7853298 2:2.307496 3:2.5998831 
-128 1:0 2:0 3:0 
128 1:2.7176705 2:2.9951963 3:3.1386184 
128 1:3.0261245 2:3.0382226 3:3.0421816 
-128 1:2.376577 2:2.8633229 3:3.0281644 
-128 1:2.0293838 2:2.0293838 3:2.0293838 
128 1:2.1139434 2:2.2148438 3:2.252853 
-128 1:3.4312029 2:3.5345338 3:3.5933968 
128 1:0 2:2.2455127 3:2.7151674 
-128 1:0 2:0 3:0 
-128 1:0 2:1.8325089 3:2.1643529 
128 1:2.7075702 2:2.7752463 3:2.8382192 
128 1:2.8668778 2:2.930949 3:2.9881128 
-128 1:1.1139434 2:1.2552725 3:1.5563025 
-128 1:3.2317244 2:3.3242825 3:3.3794868 
-128 1:2.7520484 2:2.7795965 3:2.7972675 
128 1:2.7737864 2:2.8530895 3:2.9314579 
-128 1:0 2:0 3:0 
-128 1:3.4611983 2:3.5393271 3:3.6044421 
-128 1:0 2:0 3:0 
-128 1:0 2:0 3:0 
-128 1:3.8308452 2:3.9177155 3:4.0097058 
128 1:2.40824 2:2.5092025 3:2.607455 
128 1:3.1640553 2:3.2003032 3:3.2240148 
-128 1:2.7143298 2:2.8796692 3:2.97635 
128 1:2.4800069 2:2.8312297 3:2.991669 
-128 1:0 2:0 3:1.8573325 
128 1:0 2:0 3:0.95424251 
-128 1:1.7993405 2:1.9542425 3:1.9777236 
128 1:0 2:0 3:1.7323938 
128 1:2.9684829 2:3.0386202 3:3.0791812 
-128 1:1.1139434 2:2.687529 3:2.9380191 
128 1:2.1931246 2:2.2329961 3:2.25042 
128 1:0.60205999 2:2.6901961 3:3.0899051 
128 1:0 2:0 3:0 
-128 1:0.47712125 2:1.0413927 3:1.20412 
-128 1:3.3991543 2:3.5175917 3:3.5925098 
128 1:1.5797836 2:2.0293838 3:2.209515 
-128 1:0 2:0 3:0 
128 1:0 2:0 3:0 
-128 1:2.5693739 2:2.8481891 3:3.0161974 
67.84451224514677 1:0 2:0 3:0 
-128 1:2.4487063 2:2.4668676 3:2.4785665 
128 1:2.6637009 2:2.9508515 3:3.1136092 
128 1:3.8188854 2:3.8798983 3:3.9160326 
128 1:2.6785184 2:2.9355073 3:3.1010594 
-128 1:3.0145205 2:3.0293838 3:3.0433623 
-128 1:1.8129134 2:2.3222193 3:2.5682017 
-128 1:2.5453071 2:2.5622929 3:2.5682017 
128 1:0 2:0 3:0 
128 1:2.7067178 2:3.1245042 3:3.3066394 
-128 1:2.4502491 2:2.5314789 3:2.5899496 
128 1:3.1920096 2:3.3066394 3:3.3586961 
128 1:0 2:0 3:0 
97.65274928260908 1:1.8808136 2:2.6414741 3:2.9454686 
128 1:2.6434527 2:2.7678976 3:2.8426092 
128 1:0 2:0 3:0 
-128 1:2.4377506 2:2.9278834 3:3.2132521 
-128 1:0.30103 2:2.6414741 3:3.0386202 
-63.77971728982652 1:1.9912261 2:2 3:2 
-128 1:3.4745076 2:3.5680843 3:3.6378898 
-128 1:1.1139434 2:1.7781513 3:2.1492191 
128 1:1.3222193 2:1.462398 3:1.5910646 
-90.08153219755815 1:0.30103 2:0.47712125 3:2.2944662 
-128 1:2.0293838 2:2.4983106 3:2.6551384 
-128 1:3.3443923 2:3.4787108 3:3.5583485 
-128 1:2.5786392 2:2.7512791 3:2.7752463 
128 1:3.7548069 2:3.823409 3:3.8654593 
-128 1:2.7024305 2:2.7619278 3:2.8088859 
-128 1:0 2:0 3:0 
128 1:3.8321895 2:3.943445 3:4.0301138 
17.59429800288457 1:0 2:0 3:1.447158 
-128 1:2.1986571 2:2.8830934 3:3.0103 
-128 1:2.6541765 2:2.6570559 3:2.6618127 
128 1:2.8627275 2:2.9036325 3:2.9380191 
-128 1:2.3521825 2:2.6693169 3:2.8305887 
-128 1:2.8305887 2:2.9106244 3:2.9580858 
-128 1:3.5278876 2:3.6667051 3:3.7134065 
-128 1:2.2624511 2:2.3096302 3:2.3521825 
-128 1:2.39794 2:2.5276299 3:2.6190933 
-128 1:2.2624511 2:2.307496 3:2.3304138 
-128 1:2.3560259 2:2.4578819 3:2.5502284 
128 1:0.69897 2:1.0413927 3:1.1139434 
128 1:3.5964871 2:3.6254154 3:3.6502104 
128 1:3.2617385 2:3.4742163 3:3.5582284 
-128 1:2.2201081 2:2.5477747 3:2.6848454 
-128 1:1.8325089 2:2.2278867 3:2.3443923 
128 1:3.7765559 2:3.8067903 3:3.8342935 
128 1:2.252853 2:2.365488 3:2.4440448 
-128 1:4.0059094 2:4.1651553 3:4.2318772 
-128 1:2.3747483 2:2.6201361 3:2.6599162 
128 1:1.748188 2:1.7923917 3:1.8512583 
128 1:3.0580462 2:3.1664301 3:3.2450189 
128 1:3.9216345 2:4.0226345 3:4.0969448 
-128 1:3.4543875 2:3.4565179 3:3.4610481 
128 1:2.1583625 2:2.2201081 3:2.2718416 
128 1:3.5796693 2:3.647383 3:3.6878855 
-128 1:2.6618127 2:3.2307043 3:3.4920616 
128 1:3.7600453 2:3.8502786 3:3.9245894 
-128 1:2.9754318 2:3.2518815 3:3.4756712 
-128 1:2.7781513 2:3.0599419 3:3.231979 
-128 1:1.845098 2:2.25042 3:2.4183013 
-128 1:2.1271048 2:2.3802112 3:2.5477747 
128 1:1.5314789 2:1.748188 3:1.8325089 
-128 1:0 2:0 3:0.69897 
128 1:2.7824726 2:2.8280151 3:2.8609366 
128 1:3.2889196 2:3.4181355 3:3.4958218 
-128 1:0.60205999 2:0.90308999 3:0.90308999 
128 1:2.9986952 2:3.1051694 3:3.1711412 
-128 1:2.8048207 2:2.8621314 3:2.9390198 
128 1:2.6785184 2:2.9768083 3:3.1383027 
-128 1:2.7505084 2:3.080987 3:3.1740598 
128 1:2.4393327 2:2.930949 3:3.1436392 
-128 1:1.5682017 2:1.9684829 3:2.20412 
-128 1:2.9164539 2:3.0318123 3:3.0845763 
-128 1:2.6283889 2:2.9571282 3:3.1824147 
-128 1:2.5237465 2:3.0553783 3:3.2487087 
128 1:2.5843312 2:2.8668778 3:2.8727388 
-128 1:2.3304138 2:2.3961993 3:2.4548449 
128 1:2.2718416 2:2.2878017 3:2.2966652 
-128 1:2.2329961 2:2.4031205 3:2.4828736 
-128 1:1.447158 2:2.071882 3:2.1760913 
-128 1:2.462398 2:2.4842998 3:2.506505 
128 1:2.2922561 2:2.50515 3:2.5865873 
128 1:2.5670264 2:2.607455 3:2.6201361 
128 1:2.9754318 2:3.0232525 3:3.0457141 
128 1:2.8573325 2:2.9334873 3:3.0098756 
128 1:1.6532125 2:1.6532125 3:1.6627578 
128 1:2.8481891 2:3.3904052 3:3.6090605 
128 1:1.146128 2:2.0413927 3:2.3404441 
-128 1:0 2:0 3:0 
128 1:3.5651392 2:3.6189889 3:3.6467957 
128 1:0 2:0 3:0 
128 1:2.9222063 2:2.9790929 3:3.0187005 
128 1:0 2:2.8432328 3:3.1367206 
-128 1:1.9867717 2:2.1875207 3:2.2988531 
128 1:2.8407332 2:3.0472749 3:3.1577589 
-128 1:2.683047 2:2.7250945 3:2.7619278 
128 1:3.2579185 2:3.3447851 3:3.4020894 
128 1:0 2:0 3:0 
128 1:2.2833012 2:2.3598355 3:2.4232459 
-128 1:0 2:0 3:0 
128 1:3.1322597 2:3.140508 3:3.1699682 
-128 1:2.8739016 2:2.9508515 3:2.9978231 
128 1:3.7791634 2:3.8404825 3:3.883775 
-128 1:2.506505 2:2.6009729 3:2.6414741 
-128 1:2.8898617 2:3.1855422 3:3.3944517 
128 1:0 2:0 3:1.3424227 
-128 1:0 2:0 3:0 
-128 1:2.6866363 2:2.9623693 3:3.1027766 
-128 1:3.0374265 2:3.1714339 3:3.4391747 
-128 1:1.3802112 2:1.7160033 3:1.90309 
128 1:0 2:0 3:0 
128 1:0 2:0 3:0 
-128 1:0.84509804 2:2.4517864 3:2.7450748 
128 1:2.4487063 2:2.8175654 3:3.0199467 
-128 1:2.683047 2:2.8656961 3:2.9395193 
128 1:2.3053514 2:2.9079485 3:3.1528996 
128 1:0 2:2.2278867 3:2.919601 
-128 1:3.4085791 2:3.467164 3:3.5043349 
128 1:0 2:2.4771213 3:2.8494194 
128 1:2.8662873 2:2.8937618 3:2.9106244 
128 1:3.3186893 2:3.3701428 3:3.4067105 
-128 1:2.5932861 2:2.6560982 3:2.6937269 
128 1:0 2:0 3:0 
-128 1:2.4456042 2:2.6314438 3:2.7226339 
128 1:3.0228406 2:3.191451 3:3.3161801 
-128 1:1.8920946 2:1.9867717 3:2.0606978 
-128 1:0 2:0 3:0.30103 
128 1:1.7781513 2:2.757396 3:2.9894498 
-128 1:0 2:0 3:0 
-128 1:0 2:1.146128 3:2.0043214 
-128 1:1.7242759 2:2.5010593 3:2.7505084 
128 1:2.6148972 2:2.7604225 3:2.8182259 
128 1:3.3029799 2:3.4394906 3:3.521661 
-128 1:2.447158 2:2.5276299 3:2.6720979 
-128 1:3.6726519 2:3.6755951 3:3.6786094 
-128 1:1.60206 2:1.8864907 3:2.0211893 
91.66389195772976 1:2.3617278 2:2.5415792 3:2.5646661 
128 1:2.8102325 2:2.881955 3:2.9283959 
-128 1:1.8692317 2:1.94939 3:2.0128372 
128 1:2.608526 2:2.6570559 3:2.6928469 
-128 1:2.0827854 2:2.4608978 3:2.5314789 
-128 1:0 2:0 3:0.77815125 
128 1:0.90308999 2:0.90308999 3:1.6532125 
128 1:2.4502491 2:2.7839036 3:2.9299296 
128 1:3.1328998 2:3.2598327 3:3.3412366 
-128 1:2.7874605 2:3.0128372 3:3.1498347 
128 1:3.0285713 2:3.206556 3:3.3134454 
128 1:2.4756712 2:2.5237465 3:2.5599066 
128 1:0 2:2.3324385 3:2.7387806 
-128 1:0 2:0 3:0 
-128 1:0 2:2.0211893 3:2.4941546 
128 1:0 2:0 3:0 
-128 1:2.4771213 2:2.7803173 3:2.9148718 
128 1:2.924796 2:3.0013009 3:3.0711453 
128 1:2.3783979 2:2.7752463 3:2.9143432 
128 1:2.6434527 2:2.7143298 3:2.7604225 
-128 1:2.146128 2:2.4857214 3:2.5763414 
-128 1:3.0297895 2:3.0588055 3:3.075547 
128 1:2.4048337 2:2.6354837 3:2.7512791 
-128 1:1.30103 2:2.3263359 3:2.647383 
128 1:0 2:0 3:0 
-128 1:2.7909885 2:2.8195439 3:2.8518696 
-128 1:1.8750613 2:2.0043214 3:2.09691 
128 1:1.30103 2:1.60206 3:1.7075702 
-128 1:1.447158 2:1.60206 3:1.7160033 
128 1:0 2:0 3:1.6627578 
-128 1:0.60205999 2:3.0655797 3:3.3094172 
128 1:2.7007037 2:2.7993405 3:2.854306 
128 1:3.5756496 2:3.6474808 3:3.6987963 
-128 1:1.9731279 2:2.4116197 3:2.5378191 
-128 1:3.2484637 2:3.3386557 3:3.3716219 
128 1:1.8195439 2:2.1818436 3:2.3521825 
-128 1:1.9684829 2:1.9912261 3:2.0170333 
-128 1:2.5263393 2:2.774517 3:2.9003671 
-128 1:3.6012993 2:3.6672661 3:3.8681152 
128 1:3.267641 2:3.3414345 3:3.3951516 
-128 1:2.4248816 2:2.4969296 3:2.5365584 
128 1:0 2:0 3:0.60205999 
-128 1:3.0034605 2:3.065953 3:3.1102529 
128 1:2.673942 2:2.7678976 3:2.8202015 
-128 1:2.1643529 2:2.5145478 3:2.6384893 
-128 1:2.5289167 2:2.8530895 3:2.9881128 
-128 1:0 2:0 3:1.60206 
-128 1:0 2:0 3:0 
128 1:2.6414741 2:3.2513949 3:3.5451834 
-28.4492286290965 1:2.888741 2:2.9283959 3:2.9576073 
-128 1:2.8109043 2:2.9599948 3:3.0606978 
128 1:1.770852 2:1.8573325 3:1.8864907 
-128 1:3.1360861 2:3.1852588 3:3.2148438 
-128 1:0.95424251 2:0.95424251 3:1.9444827 
-128 1:1.7993405 2:1.9444827 3:1.9590414 
128 1:1.9395193 2:1.9777236 3:2.071882 
128 1:3.7551123 2:3.7837607 3:3.8018837 
128 1:0 2:0 3:0 
-128 1:1.9444827 2:2.1139434 3:2.2278867 
104.5453084641279 1:0 2:0 3:2.3783979 
128 1:2.7923917 2:2.8500333 3:2.888741 
128 1:2.7339993 2:3.0297895 3:3.2350232 
-128 1:2.049218 2:2.1139434 3:2.1430148 
128 1:0 2:2.1105897 3:3.0666986 
128 1:2.7641761 2:2.8363241 3:2.8830934 
128 1:1.6901961 2:2.2201081 3:2.4297523 
-128 1:2.4969296 2:2.6180481 3:2.6803355 
-128 1:1.39794 2:1.69897 3:1.8388491 
-128 1:0.77815125 2:1.9344985 3:2.5786392 
-128 1:0 2:0 3:0 
128 1:2.4232459 2:2.5024271 3:2.5658478 
-128 1:0.69897 2:2 3:2.3838154 
128 1:1.6532125 2:2.1398791 3:2.4996871 
128 1:2.9595184 2:2.9965117 3:3.0207755 
128 1:3.4276484 2:3.5658478 3:3.6466977 
128 1:0 2:0 3:2.2944662 
-128 1:2.5682017 2:2.5888317 3:2.5998831 
128 1:0 2:2.3598355 3:2.7450748 
-128 1:2.9726656 2:3.0281644 3:3.0637086 
-128 1:0 2:0 3:0 
-128 1:2.2878017 2:2.4771213 3:2.5820634 
128 1:3.4704105 2:3.5701926 3:3.6441431 
-128 1:0 2:0 3:2.5314789 
128 1:2.6042261 2:2.8744818 3:2.9894498 
128 1:0 2:0 3:2.607455 
-128 1:3.0157788 2:3.058426 3:3.091667 
128 1:0 2:0 3:0 
-128 1:2.544068 2:2.8686444 3:2.9329808 
128 1:0 2:0 3:0 
-128 1:2.2741578 2:2.6627578 3:2.8715729 
-128 1:0 2:0 3:0 
